<?xml version="1.0"?>
<opencv_storage>
<opencv_ml_ann_mlp>
  <format>3</format>
  <layer_sizes>
    784 10</layer_sizes>
  <activation_function>SIGMOID_SYM</activation_function>
  <f_param1>6.6666666666666663e-01</f_param1>
  <f_param2>1.7159000000000000e+00</f_param2>
  <min_val>-9.4999999999999996e-01</min_val>
  <max_val>9.4999999999999996e-01</max_val>
  <min_val1>-9.7999999999999998e-01</min_val1>
  <max_val1>9.7999999999999998e-01</max_val1>
  <training_params>
    <train_method>BACKPROP</train_method>
    <dw_scale>1.0000000000000001e-01</dw_scale>
    <moment_scale>1.0000000000000001e-01</moment_scale>
    <term_criteria>
      <epsilon>9.9999997473787516e-06</epsilon>
      <iterations>10000</iterations></term_criteria></training_params>
  <input_scale>
    1. 0. 1. 0. 1. 0. 1. 0. 1. 0. 1. 0. 1. 0. 1. 0. 1. 0. 1. 0. 1. 0. 1.
    0. 2.1038466639100939e+00 -4.4180779942111972e-03
    7.3465782237226585e-01 -5.7548196085827489e-03
    1.1340324793763241e+00 -4.0825169257547667e-03
    2.7216779505031781e+01 -4.0825169257547667e-03 1. 0. 1. 0. 1. 0. 1.
    0. 1. 0. 1. 0. 1. 0. 1. 0. 1. 0. 1. 0. 1. 0. 1. 0. 1. 0. 1. 0. 1. 0.
    1. 0. 1.5309438471580373e+01 -4.0825169257547667e-03
    5.1378417543335395e+00 -4.7096882748057442e-03
    9.4786496244496321e-01 -8.7993464013640752e-03
    4.7730511152646854e-01 -1.1590559124901078e-02
    3.3760533284073685e-01 -1.4758979800687546e-02
    3.0085576674119052e-01 -1.9284854648110313e-02
    2.0537012327968251e-01 -2.4671797476665858e-02
    1.8086495511061523e-01 -2.9071027118112890e-02
    1.7563481948961016e-01 -3.0592658308098594e-02
    1.7563787008994008e-01 -3.1164012749625037e-02
    1.6883284765585466e-01 -3.1962871942047548e-02
    1.7342828322169204e-01 -3.0202535523057669e-02
    1.6749403091669038e-01 -3.1310217512693320e-02
    1.8472760188024673e-01 -2.8383396028899912e-02
    2.3092249674211657e-01 -2.3119190632164905e-02
    2.6906821685325510e-01 -1.9166625980513538e-02
    3.1165625491435334e-01 -1.6772300785307448e-02
    5.1465024036334295e-01 -1.0996360135763427e-02
    8.2560602957106433e-01 -8.3248607981748976e-03
    1.2398189311055090e+00 -4.3806935565727980e-03 1. 0. 1. 0. 1. 0. 1.
    0. 1. 0. 1. 0. 3.8273596178950933e+00 -4.0825169257547667e-03
    7.7076371143579658e+00 -5.3953459800505765e-03
    1.2262463813256379e+00 -8.5224123502131831e-03
    2.1857209069202939e+00 -1.1985036306279610e-02
    3.7480844479353959e-01 -1.7653477749775714e-02
    2.0022325818265649e-01 -2.7710898932479657e-02
    1.4013031729855807e-01 -3.7020094324990732e-02
    1.0294031691548404e-01 -5.2151280221332807e-02
    7.7337564294725908e-02 -6.7036200730668419e-02
    6.4350144069828780e-02 -8.3017048362084941e-02
    5.3134064659327226e-02 -9.9379297835572672e-02
    4.5528222999621615e-02 -1.1518412777789271e-01
    4.0333765593801335e-02 -1.2913325615454091e-01
    3.8172050383375566e-02 -1.3839467726744728e-01
    3.7314415010388242e-02 -1.3888363076174820e-01
    3.8862636726537038e-02 -1.3184343822661324e-01
    4.2965532185901718e-02 -1.2042952234827012e-01
    4.9839378548531522e-02 -1.0189079484830869e-01
    6.5388748483052359e-02 -7.8604904363951955e-02
    8.9976498603427962e-02 -5.6995613040341439e-02
    1.3390326577294903e-01 -3.9657683879755073e-02
    2.5247440459466680e-01 -2.3728386125155435e-02
    4.0004769536487894e-01 -1.4088346338433153e-02
    9.0704718335127554e-01 -7.8308406829326795e-03 1. 0. 1. 0. 1. 0. 1.
    0. 1.6603229489473221e+00 -5.3683775349296749e-03
    1.5163428875843565e+00 -8.8706058923684866e-03
    1.1709417775958955e+00 -1.4070817027444010e-02
    3.1744113434375015e-01 -2.2146809806048971e-02
    1.6587883755403252e-01 -3.5180136797917733e-02
    1.0075751730349713e-01 -5.5023680199439789e-02
    6.8516103777253992e-02 -7.9096132135524966e-02
    4.8580266476534253e-02 -1.0764901248535225e-01
    3.7687844665627961e-02 -1.3716993570650837e-01
    3.0729268372916497e-02 -1.6710576141191991e-01
    2.6462458803787101e-02 -1.9600875548259125e-01
    2.3151210409567968e-02 -2.2449111368547134e-01
    2.0925208082991271e-02 -2.4865599141752553e-01
    1.9801368144819295e-02 -2.6211797063462611e-01
    2.0007967342284324e-02 -2.6259690164666721e-01
    2.0980704578722208e-02 -2.4785590321914444e-01
    2.3255946689967451e-02 -2.2194700322681937e-01
    2.7278164226132485e-02 -1.8721140499215855e-01
    3.5205639871294270e-02 -1.4764013164625320e-01
    4.7552439450484485e-02 -1.0816436385538704e-01
    7.2393683818392299e-02 -7.6812111654108173e-02
    1.1396537993357475e-01 -4.7075299604561950e-02
    1.8633604677174664e-01 -3.0201967580920600e-02
    5.4890432975324055e-01 -1.5241243556148311e-02
    1.8870427315559291e+00 -5.2837196483566011e-03 1. 0. 1. 0.
    6.4460793564548942e+00 -4.0825169257547658e-03
    1.4881961063114144e+00 -7.7634230212578776e-03
    1.0378574750912513e+00 -1.4893254767559455e-02
    2.9626314199892556e-01 -2.3962750468679763e-02
    1.2271782724507993e-01 -5.0340898033052542e-02
    7.5503214617767808e-02 -7.8767470263075956e-02
    4.8023122663132030e-02 -1.1618154027353761e-01
    3.3763819709914628e-02 -1.6124756197962478e-01
    2.5250311458977676e-02 -2.1196163534976650e-01
    2.0052094965084099e-02 -2.6689873121059338e-01
    1.6720901271095080e-02 -3.2567801032750021e-01
    1.4433780328490018e-02 -3.9024154804428057e-01
    1.2838641258765621e-02 -4.5207637577719822e-01
    1.1935670058468253e-02 -4.9939798378235850e-01
    1.1566812160518124e-02 -5.2342832397506245e-01
    1.1674165860786076e-02 -5.1761889440708375e-01
    1.2286269902340810e-02 -4.8090241906897768e-01
    1.3504748722938009e-02 -4.2307969402109191e-01
    1.5561919052793203e-02 -3.5674039490496118e-01
    1.9127727707166170e-02 -2.8368364842044325e-01
    2.5034828244085983e-02 -2.1683666135332635e-01
    3.4856099854641463e-02 -1.5852438026891422e-01
    5.0904882032675139e-02 -1.0878458131852732e-01
    8.2190903785030009e-02 -7.0922530876102396e-02
    1.8750171775889582e-01 -3.8953481864410604e-02
    4.8068752630553679e-01 -1.4252385154959166e-02
    2.8379498678091473e+00 -5.7704980645452656e-03 1. 0. 1. 0.
    1.1536420576779074e+00 -1.1901740561710412e-02
    3.4806876020438438e-01 -2.2050155958947753e-02
    1.3108076953627013e-01 -5.1838074992610297e-02
    6.1951416938616229e-02 -9.0659703547970996e-02
    3.8928522875927463e-02 -1.3966710556553796e-01
    2.7267172044038460e-02 -1.9708212055276858e-01
    2.0310544526470912e-02 -2.6438472766459992e-01
    1.6058619090491534e-02 -3.4073044164379185e-01
    1.3413662972845386e-02 -4.2253574910981878e-01
    1.1659149742615876e-02 -5.1540864854364965e-01
    1.0458320244453354e-02 -6.1603532693124363e-01
    9.7011251647249417e-03 -7.1598329682613437e-01
    9.3313156332037895e-03 -7.9412046598170660e-01
    9.2169012100847113e-03 -8.3504925263841268e-01
    9.2684362963140459e-03 -8.2418581131767721e-01
    9.5139360324611212e-03 -7.6283928350277330e-01
    1.0108144176694272e-02 -6.6655949828398464e-01
    1.1171070003323126e-02 -5.5625039790047115e-01
    1.3031960000588465e-02 -4.4764565402688039e-01
    1.6161069925254887e-02 -3.4762461409223266e-01
    2.1051996788279799e-02 -2.6084090667243637e-01
    2.8664363472002463e-02 -1.9030605326636274e-01
    4.3799712526290821e-02 -1.3108012967263930e-01
    8.8715176669426937e-02 -7.4846037383439853e-02
    2.2544219187530931e-01 -3.1930129109272974e-02
    1.7465783701487902e+00 -8.2089183396993146e-03 1. 0.
    3.0382652336798213e+01 -5.5701529284130054e-03
    5.6952462131221326e-01 -1.5661927086085863e-02
    1.6422848396732007e-01 -3.6365660633163578e-02
    7.0587879827199648e-02 -7.9024307931213802e-02
    4.0514631513379903e-02 -1.3328908621586855e-01
    2.6780784428177353e-02 -1.9915441070732662e-01
    1.9322387991394883e-02 -2.7542969146413893e-01
    1.5052602089655870e-02 -3.6333594608959097e-01
    1.2418851013265312e-02 -4.6308053298899382e-01
    1.0822571024019725e-02 -5.7484518896921732e-01
    9.8544086338043825e-03 -6.9880387280738732e-01
    9.2830187890575854e-03 -8.2877368352491809e-01
    9.0074868253702551e-03 -9.5689204766999747e-01
    8.9149207576242825e-03 -1.0564726393771116e+00
    8.9019724135588046e-03 -1.1047183078736826e+00
    8.9022737607425007e-03 -1.0835076091183173e+00
    8.9165573854273171e-03 -9.9895164574737372e-01
    9.1017039348284430e-03 -8.7474762363395098e-01
    9.6395423414931299e-03 -7.2455973459718970e-01
    1.0744575840055575e-02 -5.8060589820293118e-01
    1.2804502010278487e-02 -4.5215876382959225e-01
    1.6164493498503400e-02 -3.3932343107123353e-01
    2.1755020593201647e-02 -2.4893037280300365e-01
    3.2098587832302343e-02 -1.7293970156995084e-01
    5.6103241780279242e-02 -1.0410424039345649e-01
    1.2964213042516703e-01 -4.8317622009459750e-02
    4.8541314454218504e-01 -1.4708018279628208e-02
    5.2117237350060854e+00 -4.0825169257547667e-03
    6.7049033577396222e-01 -1.3231009292606188e-02
    2.4375065889415110e-01 -2.6243820940936934e-02
    9.9317704767939163e-02 -5.9158590845022965e-02
    4.8869076680976266e-02 -1.1300485291708950e-01
    3.0097579331474431e-02 -1.7844152508780120e-01
    2.0746524026233240e-02 -2.5800481011643789e-01
    1.5629562512516047e-02 -3.5091181161850776e-01
    1.2649151806693614e-02 -4.5909822417438662e-01
    1.0837898273378558e-02 -5.8414555692950476e-01
    9.8279264066316891e-03 -7.2495420680603806e-01
    9.3051070721609456e-03 -8.7563926623715083e-01
    9.0948880042541775e-03 -1.0148029044892122e+00
    9.0573545680194597e-03 -1.1321685662228851e+00
    9.0554108274627180e-03 -1.2021883425077196e+00
    9.0808663884127377e-03 -1.2295375038647796e+00
    9.0723709836048102e-03 -1.2096976992530375e+00
    9.0356182139097012e-03 -1.1446098274798200e+00
    9.0106171506072388e-03 -1.0231255420609500e+00
    9.2054011907544645e-03 -8.6295358399973732e-01
    9.8953953711339582e-03 -6.9048023851396068e-01
    1.1378785206741562e-02 -5.3290132006238677e-01
    1.4125519371424632e-02 -3.9754744006276055e-01
    1.8925092601564067e-02 -2.8768127889100548e-01
    2.8009150098363078e-02 -1.9700702540851978e-01
    4.6932781744196905e-02 -1.2122893967131874e-01
    1.1071645081439330e-01 -5.6808610912865203e-02
    4.8271828388700305e-01 -1.5390667951263946e-02
    1.2357769628161059e+00 -5.0254929821188302e-03
    3.4084327675239168e-01 -1.7320519180300704e-02
    1.3079811498430369e-01 -4.3080539138663484e-02
    6.4712412758713506e-02 -8.5248896947691236e-02
    3.7207419379852932e-02 -1.3945836882493945e-01
    2.4858152431941404e-02 -2.1088330755129384e-01
    1.7838905150873663e-02 -3.0001797729333762e-01
    1.3760719731315114e-02 -4.0728152617562596e-01
    1.1354928120847716e-02 -5.3288847995060140e-01
    9.9935311401737701e-03 -6.8062942536381499e-01
    9.3252364895925095e-03 -8.4198850255578495e-01
    9.0567574469155917e-03 -9.8243825473033908e-01
    9.0001864657767855e-03 -1.0749410206177445e+00
    8.9792216175286245e-03 -1.1079807253900844e+00
    8.9938924314447530e-03 -1.1065909866747210e+00
    9.0251680310060711e-03 -1.1041449232725029e+00
    9.0281449405893929e-03 -1.1080246799657834e+00
    9.0074291609982537e-03 -1.1002043281838867e+00
    8.9779656800706639e-03 -1.0437866693996500e+00
    9.0743768988995922e-03 -9.1297850442442741e-01
    9.5603998434639730e-03 -7.3919131377694225e-01
    1.0794544642347401e-02 -5.7100550467303579e-01
    1.3318540978204832e-02 -4.2367100161696558e-01
    1.8229752003881883e-02 -2.9819620669549857e-01
    2.7511175302463796e-02 -1.9768613533173737e-01
    4.6299027012198526e-02 -1.2068381546044687e-01
    1.1199645993336554e-01 -5.3935628496243289e-02
    4.9683176133878221e-01 -1.3505543379059230e-02
    1.2135025916301894e+00 -5.9057126126002548e-03
    2.6564179405804561e-01 -2.1109667901146024e-02
    1.0349084381728776e-01 -5.2989036881848292e-02
    5.4134811331694038e-02 -9.3078492356859194e-02
    3.3829270306457576e-02 -1.5039873374962087e-01
    2.3065104567247429e-02 -2.2619102328598756e-01
    1.6574686520695520e-02 -3.2364534010158574e-01
    1.2813608645905221e-02 -4.4213121716537451e-01
    1.0680765347830560e-02 -5.8424747721514458e-01
    9.5801693578614795e-03 -7.4857559262355899e-01
    9.0918936977612066e-03 -9.0044933236446290e-01
    8.9727262193568576e-03 -9.9238770713310409e-01
    8.9819519055079709e-03 -9.9508844582905953e-01
    9.0820062361602442e-03 -9.4955659857977437e-01
    9.1764797612000990e-03 -9.0890462620353851e-01
    9.1956015418566493e-03 -9.1393597102263968e-01
    9.1467019539129609e-03 -9.5430483674302435e-01
    9.0464398169267015e-03 -1.0030879428764543e+00
    8.9980387824558083e-03 -9.9948655135463493e-01
    9.0926540338881860e-03 -9.0150861177674246e-01
    9.5622567025844003e-03 -7.3668151560828854e-01
    1.0769019356842361e-02 -5.6758942145055025e-01
    1.3360669430876521e-02 -4.2017189920780101e-01
    1.8851421857897347e-02 -2.9017459542242080e-01
    3.0444269756015222e-02 -1.8148235125157422e-01
    5.5290631176703513e-02 -1.0493977495234404e-01
    1.3419187001379709e-01 -4.7213172933187608e-02
    5.0079854522521305e-01 -1.4130865617771429e-02
    8.6592077801118750e-01 -5.7728051867412507e-03
    2.2961390400521112e-01 -2.2632277138113641e-02
    1.0095565869099236e-01 -5.2803174684012043e-02
    5.5061939830372622e-02 -9.2205806740944821e-02
    3.4378371408908800e-02 -1.4745169983709391e-01
    2.3012820556852713e-02 -2.2728458804171869e-01
    1.6184974494829037e-02 -3.3242831639121695e-01
    1.2441736626448881e-02 -4.6269615812556164e-01
    1.0366445817928003e-02 -6.1903352143624946e-01
    9.4040119553180906e-03 -7.8428268532505208e-01
    9.0616285729332741e-03 -9.0820987918795304e-01
    9.0276598486294709e-03 -9.3137298385228173e-01
    9.2614461294292412e-03 -8.6957693484385423e-01
    9.6085890673250074e-03 -7.9705952732714902e-01
    9.7127245345455509e-03 -7.7141210191978882e-01
    9.5067723677463162e-03 -8.0356009282996355e-01
    9.3102427461099514e-03 -8.7393929706678419e-01
    9.1123038468280335e-03 -9.5157541370809595e-01
    9.0526943272145437e-03 -9.6213106545131555e-01
    9.1642554906533492e-03 -8.6347325893960780e-01
    9.7610766420335414e-03 -7.0132424639191082e-01
    1.1122250632863200e-02 -5.3739656439070949e-01
    1.3932455672998783e-02 -3.9677102693919941e-01
    2.0093294770402510e-02 -2.7122264169335480e-01
    3.4631988773663712e-02 -1.5932446435323991e-01
    7.0653342057910351e-02 -8.1258408700802684e-02
    1.6657039989223177e-01 -3.6950867042760079e-02
    6.3381134461946831e-01 -1.1873399189204707e-02
    1.1890742635516922e+00 -7.0551739637400397e-03
    2.7187404253543629e-01 -2.0771176849707331e-02
    1.1215355577505325e-01 -4.7203562399790323e-02
    6.4047150216850077e-02 -8.2003836232647606e-02
    3.7699984436756581e-02 -1.3745728492178422e-01
    2.3569637058332028e-02 -2.2518195549159836e-01
    1.6017065431567844e-02 -3.3849238108059060e-01
    1.2117447090558515e-02 -4.8293499702811588e-01
    1.0115402446214745e-02 -6.4828821904598688e-01
    9.2857287761024532e-03 -8.0980531132096956e-01
    9.0752699606343259e-03 -8.9646046061893581e-01
    9.1895703573481244e-03 -8.7178559265499089e-01
    9.6099674381496681e-03 -7.8497609556634629e-01
    9.9879206995551022e-03 -7.3254173735263994e-01
    9.7307756351548563e-03 -7.4095055945724220e-01
    9.3907556905952812e-03 -8.0221046978473176e-01
    9.2634071053515083e-03 -9.0126281481954318e-01
    9.0965707880393890e-03 -9.7772292777300929e-01
    9.0565166767232076e-03 -9.5554794253494879e-01
    9.2655007477132657e-03 -8.2490289881853818e-01
    1.0100768352726762e-02 -6.5598783516841030e-01
    1.1750607276521729e-02 -4.9936418652616171e-01
    1.4583948964667304e-02 -3.6957330910853065e-01
    2.0545306471433603e-02 -2.5846440689370354e-01
    3.7518820030696919e-02 -1.4969571472681045e-01
    1.0108848101217496e-01 -6.1111356387893508e-02
    2.2499252054679278e-01 -2.8011568808075701e-02
    1.1173591407938479e+00 -9.1250996498164240e-03
    1.3958819197838115e+00 -5.3043512951784838e-03
    3.7172987183149653e-01 -1.6238399901172540e-02
    1.5030415156391430e-01 -3.6378614816852721e-02
    7.8039041670625295e-02 -6.8582010470840019e-02
    4.1503882772181609e-02 -1.2736849891403002e-01
    2.3538333232684960e-02 -2.2614335961635912e-01
    1.5462427079906763e-02 -3.5220290631899825e-01
    1.1648493961269058e-02 -5.0758351264543122e-01
    9.8511889908257204e-03 -6.7944963961590432e-01
    9.1766156748710921e-03 -8.2825104798213767e-01
    9.0795319460043253e-03 -8.8883003574129060e-01
    9.2432547929562799e-03 -8.4190091143889212e-01
    9.6169336711802098e-03 -7.6653452789534315e-01
    9.7040862635580302e-03 -7.7020475479573480e-01
    9.1824004548704888e-03 -8.2034371951753815e-01
    9.0221486619736380e-03 -9.1768349044746200e-01
    9.1039929428001869e-03 -1.0290959404025219e+00
    9.0004175478489486e-03 -1.0582789957353820e+00
    8.9891423011017220e-03 -9.6567404305680271e-01
    9.3999912450939676e-03 -7.9447676337845186e-01
    1.0527038572582560e-02 -6.1674936335832320e-01
    1.2285167278453694e-02 -4.7007288390074897e-01
    1.4959388512931451e-02 -3.5512441443246612e-01
    2.0091687812791130e-02 -2.5540754464498211e-01
    3.5817150554283542e-02 -1.5382451343799078e-01
    1.1834017383780147e-01 -5.2454282053605500e-02
    2.6955335370853167e-01 -2.1505865070045684e-02
    9.7593261748757754e-01 -9.9219816111237036e-03
    7.6547192357901865e+00 -4.0825169257547667e-03
    5.9914440434565353e-01 -1.0934385379308176e-02
    2.0833055220658958e-01 -2.5544797876397993e-02
    9.3973239798281594e-02 -5.7073080970823017e-02
    4.2724174432875753e-02 -1.2466202029939263e-01
    2.2427537614770596e-02 -2.3849817291840633e-01
    1.4606786361226609e-02 -3.7325889731751249e-01
    1.1204170363603227e-02 -5.3313606806675962e-01
    9.6664264279342823e-03 -7.0209413981322266e-01
    9.1351227959779544e-03 -8.3745004990550431e-01
    9.0833794130886179e-03 -8.8007424931675216e-01
    9.2319999839093215e-03 -8.4101427266750906e-01
    9.4027437080550415e-03 -8.1679095851072969e-01
    9.1982651471546207e-03 -8.9192403730482583e-01
    8.7863379291949449e-03 -9.7855056346064451e-01
    8.9601106040964398e-03 -1.1108034291517508e+00
    9.0953034118440544e-03 -1.1806299570947056e+00
    8.9167596206221351e-03 -1.1288577554289330e+00
    8.9646163171245557e-03 -9.7607041281396068e-01
    9.5517249996382881e-03 -7.7519539522147773e-01
    1.0763916272172904e-02 -5.9444660485818457e-01
    1.2388528244233175e-02 -4.6091023791539754e-01
    1.4829329311590322e-02 -3.5550054572089246e-01
    1.9316476802955316e-02 -2.6354918038032160e-01
    3.2238662755345197e-02 -1.6450368713065402e-01
    1.0178387638579016e-01 -5.9513032522771507e-02
    2.8160676310321775e-01 -2.3368667891515354e-02
    6.8137948719919539e-01 -7.4043237608979236e-03
    2.1677081021706726e+00 -4.0825169257547667e-03
    9.6828429446622244e-01 -7.9883454293463354e-03
    3.3778067000818779e-01 -1.8296452958776840e-02
    1.1012713424410198e-01 -5.1339434532362942e-02
    4.2193078163128728e-02 -1.2934639719891805e-01
    2.0849796247658994e-02 -2.5752139340050229e-01
    1.3846410772487106e-02 -3.9501132961156366e-01
    1.0897630979309679e-02 -5.5042172292818203e-01
    9.5907413426751294e-03 -7.0732308831278545e-01
    9.1408352561085510e-03 -8.2604981707907066e-01
    9.1278995218893790e-03 -8.6785315071101776e-01
    9.2266829733360003e-03 -8.6074372211415462e-01
    9.2409831619656383e-03 -9.0403567970277843e-01
    8.9645791564348255e-03 -1.0347035295982636e+00
    8.7929712365879820e-03 -1.1454361823194157e+00
    9.1305985089769198e-03 -1.2742078920823614e+00
    9.1042142617443842e-03 -1.2481935412875207e+00
    8.8985315860213837e-03 -1.1397750920942384e+00
    9.0031104051283874e-03 -9.6328344629334939e-01
    9.5911179236369565e-03 -7.6301131574111825e-01
    1.0642844571430145e-02 -5.9702704002420259e-01
    1.2120770906235662e-02 -4.7201998945292917e-01
    1.4424704567579208e-02 -3.6837041207106841e-01
    1.8700098612517119e-02 -2.7332531634520335e-01
    3.0303960202343848e-02 -1.7338663362772719e-01
    8.4045739185599391e-02 -6.8942719853947176e-02
    2.6657282114179148e-01 -2.4644657314558623e-02
    3.1510835765894534e+00 -6.9849019281066219e-03
    6.5049273574319830e+00 -4.7702800621167874e-03
    1.0834727644497475e+00 -4.1894280225390238e-03
    4.1348683773770312e-01 -1.8648256381970412e-02
    1.0536764207332489e-01 -5.3272123704905180e-02
    3.9437687853005290e-02 -1.4042051677981554e-01
    1.9237766378276837e-02 -2.7718062364316937e-01
    1.3302078070767992e-02 -4.1220900758168094e-01
    1.0818343387599577e-02 -5.5400339815306554e-01
    9.6864675984830468e-03 -6.9200544270492148e-01
    9.2448693226821633e-03 -7.9258313982720718e-01
    9.2135184390030808e-03 -8.4194083559182187e-01
    9.2290378319375942e-03 -8.6976698260718999e-01
    9.1260415072594771e-03 -9.5866434691792879e-01
    8.8804006446702895e-03 -1.0941026571060872e+00
    8.8797964875475550e-03 -1.2048945535106514e+00
    9.1468978002377660e-03 -1.2724254103359656e+00
    8.9802249753631255e-03 -1.1836340627652491e+00
    8.8799652257232943e-03 -1.0783524891312286e+00
    9.1038267435211984e-03 -9.2258453333646129e-01
    9.6005143329042260e-03 -7.5248127303585577e-01
    1.0462540184554626e-02 -6.0978718332237880e-01
    1.1799828497338932e-02 -4.8675393868849515e-01
    1.4117684561402858e-02 -3.8089677652984794e-01
    1.8689568617624490e-02 -2.7829889045759920e-01
    3.0110332991676945e-02 -1.7549155193650753e-01
    7.1349130087979176e-02 -7.7026142538646050e-02
    1.9988510513655666e-01 -2.9626303999656638e-02
    8.4094525335208525e-01 -9.1102402446475907e-03
    6.1237753886321498e+00 -4.0825169257547667e-03
    1.6909102611898854e+00 -6.7072773693865459e-03
    2.9060222872968322e-01 -2.1601432335573118e-02
    9.7449342839386846e-02 -6.0707692277510023e-02
    3.5128318226281312e-02 -1.5702241152753660e-01
    1.7978327035971048e-02 -2.9716316829999756e-01
    1.2972135741630021e-02 -4.2230679805745347e-01
    1.0926611684804018e-02 -5.4572670683442071e-01
    9.9394243167690299e-03 -6.5910028912336482e-01
    9.5170892642893745e-03 -7.4125055232891279e-01
    9.4183173905225872e-03 -7.8837956472434367e-01
    9.3234438830669935e-03 -8.3396729322086094e-01
    9.0908602873452683e-03 -9.1941339753528917e-01
    8.8553309504785412e-03 -1.0259556200619726e+00
    8.8775613412684518e-03 -1.1227755144981371e+00
    8.9860571702642302e-03 -1.1450631619152505e+00
    8.9169675187790176e-03 -1.0794597021434531e+00
    8.9903200414028113e-03 -9.9988631339674205e-01
    9.2156451799928485e-03 -8.7891758398800457e-01
    9.6126381809093359e-03 -7.4358354374596913e-01
    1.0327951414885607e-02 -6.1562164263755803e-01
    1.1728731090174187e-02 -4.9307976460795289e-01
    1.4212188896869156e-02 -3.7987428084700636e-01
    1.9203497078539213e-02 -2.7351764929762651e-01
    3.0903316836217960e-02 -1.7353912085962375e-01
    6.5301956507944486e-02 -8.4050148221375340e-02
    1.7839395414126039e-01 -3.4162442218051363e-02
    7.2680060806126534e-01 -8.9396474791535643e-03 1. 0.
    1.2263737007433526e+00 -8.9320884537474176e-03
    2.2636152789709318e-01 -2.5397763430053854e-02
    7.7516311632616741e-02 -7.3900175694955175e-02
    2.9881229021335241e-02 -1.7786004742175898e-01
    1.6917332253984091e-02 -3.1338342960570287e-01
    1.2825042487910698e-02 -4.2901306127159833e-01
    1.1106879955347627e-02 -5.3508893613681163e-01
    1.0267557252323577e-02 -6.2078198750601798e-01
    9.8628811810199234e-03 -6.8268923835054318e-01
    9.6874184941051992e-03 -7.2347013698264284e-01
    9.4821683198973647e-03 -7.6555897899305758e-01
    9.2097577685446678e-03 -8.2507042481961534e-01
    9.0180135158619921e-03 -9.1939023544776177e-01
    8.9352815371610324e-03 -1.0062601332296954e+00
    8.9470083282042461e-03 -1.0328150547988861e+00
    9.0041800398750205e-03 -1.0106726878790984e+00
    9.1032483615716333e-03 -9.5150929723216771e-01
    9.2356390105956653e-03 -8.5546568645152354e-01
    9.5820198680995929e-03 -7.4032106833884559e-01
    1.0336779490160927e-02 -6.1326579426167072e-01
    1.1888667060846268e-02 -4.8515629201913280e-01
    1.4755469135091659e-02 -3.6804197776930747e-01
    2.0318339514053187e-02 -2.6078182399496985e-01
    3.2644014383103000e-02 -1.6833375676862808e-01
    6.2500684961346781e-02 -8.8542637028574608e-02
    1.7109776495512422e-01 -3.5936233899407921e-02
    1.2057200212717352e+00 -1.0710812855630580e-02
    3.1084035706307054e+00 -5.9059667841983403e-03
    1.1947550115224044e+00 -6.3521141445941169e-03
    1.8459952406871327e-01 -3.3320214094402743e-02
    6.0063061530205179e-02 -9.1304862985141400e-02
    2.6124691582275841e-02 -1.9910803065973620e-01
    1.6062765900929157e-02 -3.2796741246305139e-01
    1.2574762178659240e-02 -4.3899542662547630e-01
    1.1092271024320957e-02 -5.3445408811407946e-01
    1.0397746220095131e-02 -6.0594789680655092e-01
    9.9918239700375680e-03 -6.5940509392984525e-01
    9.7265660223358908e-03 -6.9784836599699163e-01
    9.5376283492236060e-03 -7.3042289419662365e-01
    9.3973170455657826e-03 -7.8112566692492813e-01
    9.1631363690461050e-03 -8.7168855191159800e-01
    8.9947413603606984e-03 -9.5845445408422691e-01
    9.0127820363154667e-03 -1.0112466121564123e+00
    9.0746977830615579e-03 -1.0104488437684862e+00
    9.0740873457440842e-03 -9.5294507586676680e-01
    9.1725874047577736e-03 -8.5872463833459933e-01
    9.5567783204039188e-03 -7.3231139362819653e-01
    1.0492049895120014e-02 -5.9491059544069125e-01
    1.2272183566913935e-02 -4.6342915009115859e-01
    1.5468821882370341e-02 -3.4877114414893740e-01
    2.1602314695750677e-02 -2.4588474663859947e-01
    3.4548855257881220e-02 -1.5820093566860099e-01
    6.5794896362632041e-02 -8.5437962671695844e-02
    2.0501057750388216e-01 -3.1557961563764260e-02
    8.0112838185817015e-01 -9.7604141189720391e-03
    1.6330067703019068e+01 -4.0825169257547676e-03
    9.2599146384527464e-01 -1.1281662667848262e-02
    1.3885709865451468e-01 -3.9757101629765125e-02
    5.0812940557092921e-02 -1.0385233479292914e-01
    2.4299944569476883e-02 -2.1198097145090775e-01
    1.5527313999749314e-02 -3.3747788855041810e-01
    1.2263456380429100e-02 -4.5170193276974174e-01
    1.0830555475179219e-02 -5.5213160960619312e-01
    1.0134482034941036e-02 -6.3188647505087880e-01
    9.7265278391635620e-03 -6.9322439099774313e-01
    9.4810228062583851e-03 -7.3838490045824501e-01
    9.3269664859713421e-03 -7.7073076657941308e-01
    9.2118835958347536e-03 -8.2876952328269016e-01
    9.0652411048955366e-03 -9.1927271014272005e-01
    8.9715128503452118e-03 -1.0088060986882783e+00
    9.0050697105492471e-03 -1.0608282793932027e+00
    9.0414249902396691e-03 -1.0481237261139540e+00
    9.0015145645349817e-03 -9.6705521345440448e-01
    9.1734534916265917e-03 -8.4650228433733210e-01
    9.7550161788788840e-03 -7.0122275449120453e-01
    1.0932734670331646e-02 -5.5538565443651511e-01
    1.3062795677920784e-02 -4.2707460646741952e-01
    1.6875887836370441e-02 -3.1681047982258770e-01
    2.4101940546579017e-02 -2.2068580332366877e-01
    3.8751463222016364e-02 -1.4105726370130067e-01
    7.3159609120596256e-02 -7.8171042345357100e-02
    1.9892691542262070e-01 -2.9182578492498456e-02
    1.1745052636088484e+00 -8.0257859679937985e-03 1. 0.
    6.7743045194532669e-01 -1.0342104899698654e-02
    1.3034223502601749e-01 -4.3273622028637812e-02
    4.8396784585620529e-02 -1.0916701376363136e-01
    2.4554369196308077e-02 -2.0903257268663047e-01
    1.5957442297017288e-02 -3.3022464068133384e-01
    1.2265676368740121e-02 -4.5487526569794062e-01
    1.0581039790359304e-02 -5.6919680718391474e-01
    9.7712862742586806e-03 -6.7294360006505827e-01
    9.3716729213697333e-03 -7.6060122562919896e-01
    9.1670714229806546e-03 -8.2875749514337049e-01
    9.0565093371887725e-03 -8.8650818993286140e-01
    8.9927793155633890e-03 -9.5984040337562160e-01
    8.9601866312100115e-03 -1.0513839685493109e+00
    8.9706534258689029e-03 -1.1209048246414319e+00
    8.9915709913075108e-03 -1.1289434394918580e+00
    8.9897909461324008e-03 -1.0627393739357245e+00
    9.0489413975631070e-03 -9.3933290255853630e-01
    9.3869994595349414e-03 -7.8734756501774561e-01
    1.0238985882502244e-02 -6.2699095585584852e-01
    1.1917777300855883e-02 -4.8806277491330052e-01
    1.4791158246896483e-02 -3.6895114434919413e-01
    1.9759322047736599e-02 -2.6929222578181711e-01
    2.8636730168165581e-02 -1.8721262347438247e-01
    4.4816751016600868e-02 -1.2162743363810283e-01
    8.8757045142441426e-02 -6.6493819652545694e-02
    2.3309658019791660e-01 -2.6033003065103984e-02
    3.4296926369754859e+00 -5.7733159389087348e-03
    7.6547192357901865e+00 -4.0825169257547667e-03
    7.8814988570461819e-01 -1.0009503548448651e-02
    1.4248410269843431e-01 -4.0498731456984981e-02
    5.4363151333695764e-02 -9.9984707932933251e-02
    2.8375327488622572e-02 -1.8820172417891326e-01
    1.7729156407121936e-02 -2.9963131237262419e-01
    1.3022109541900492e-02 -4.2724846894466612e-01
    1.0766760710396927e-02 -5.5525136047379708e-01
    9.6810743355093577e-03 -6.8177739738408816e-01
    9.1870388757289943e-03 -8.0158751598510614e-01
    8.9979268816343348e-03 -9.0865684586542761e-01
    8.9719310664269480e-03 -1.0089452370233423e+00
    9.0022585562169813e-03 -1.1036228854408645e+00
    9.0612208366722975e-03 -1.1813322012848917e+00
    9.0423344294405638e-03 -1.1921856786161482e+00
    9.0119546128711852e-03 -1.1253050489984862e+00
    9.0406791698941658e-03 -9.9470795821094149e-01
    9.3022236841844245e-03 -8.3223274412924364e-01
    1.0018220458531771e-02 -6.6712599007954476e-01
    1.1463256311922469e-02 -5.2269449230298171e-01
    1.3974510147232210e-02 -3.9906542810446116e-01
    1.8207166230644323e-02 -2.9670064291410431e-01
    2.4981100867880378e-02 -2.1262622368528269e-01
    3.6186649309320182e-02 -1.4869395756610573e-01
    5.6897637528183539e-02 -9.6895728416537763e-02
    1.1475704424736648e-01 -5.0931088854385367e-02
    3.4232733864082288e-01 -2.0214429346740590e-02
    6.2807952703919492e+00 -4.0825169257547667e-03
    7.9016456627511626e+00 -4.0825169257547676e-03
    6.1066837998566887e+00 -6.0049057365257437e-03
    1.8016755677681681e-01 -3.3706347080329477e-02
    7.2587196736811327e-02 -7.8972450476426176e-02
    3.7455665821716146e-02 -1.4774137678937121e-01
    2.2428955822545487e-02 -2.4325024984597407e-01
    1.5405581048547274e-02 -3.6034629759351816e-01
    1.1969998229364799e-02 -4.8644317204398235e-01
    1.0208599615130163e-02 -6.2240998151146698e-01
    9.3414041031404278e-03 -7.5670417593653161e-01
    8.9670432839366356e-03 -8.8873651263300035e-01
    8.8608855988812490e-03 -1.0021705916762687e+00
    8.8928679606332679e-03 -1.0895925700834848e+00
    8.9179406011185743e-03 -1.1174380226865099e+00
    8.9114340937564915e-03 -1.0748398501629048e+00
    8.9850710736181592e-03 -9.6307263008735955e-01
    9.3227862196658406e-03 -8.1766817267627045e-01
    1.0074657913157727e-02 -6.6465591023765036e-01
    1.1549793802228309e-02 -5.2359507978864084e-01
    1.3996888188408021e-02 -4.0214202844498298e-01
    1.7929426219009413e-02 -3.0306915962171466e-01
    2.4197135218011402e-02 -2.2168084444305056e-01
    3.3843079925784600e-02 -1.5936593526785550e-01
    4.9465112384615262e-02 -1.1006069947430872e-01
    8.3866566172356299e-02 -7.0039764962740489e-02
    1.9636356479161621e-01 -3.7135622828174480e-02
    6.8419120753163565e-01 -1.2201409867647502e-02
    3.4020974381289726e+00 -4.0825169257547667e-03 1. 0. 1. 0.
    3.5436976592843078e-01 -2.2738726647074308e-02
    1.2394825414122598e-01 -5.1905397225874068e-02
    5.7706483627069961e-02 -9.9988024180624122e-02
    3.3587353790810542e-02 -1.6843162263323730e-01
    2.1636815134268017e-02 -2.6031071981245063e-01
    1.5448413568205534e-02 -3.6983708061131620e-01
    1.2174356454018282e-02 -4.9009799512089147e-01
    1.0449052992553004e-02 -6.1537067921304456e-01
    9.5637224340296180e-03 -7.3897799359204341e-01
    9.1617488731368553e-03 -8.4317590464230574e-01
    9.0462563769141725e-03 -9.0195141353546182e-01
    9.0738577911196883e-03 -8.9980608323712019e-01
    9.2695563858204554e-03 -8.3974857905988531e-01
    9.7197871775051570e-03 -7.3465553413096107e-01
    1.0637555873087607e-02 -6.1257571084840612e-01
    1.2242464956319374e-02 -4.9207118796130972e-01
    1.4900760471377032e-02 -3.7992816658281020e-01
    1.8951479783046236e-02 -2.8881739331366080e-01
    2.5040927583794417e-02 -2.1344093709719539e-01
    3.4772498014742532e-02 -1.5366778231001738e-01
    4.9488756807815740e-02 -1.0912600801168756e-01
    7.5483885452548014e-02 -7.4098756154493753e-02
    1.3956777504971854e-01 -4.3317185116264312e-02
    3.3370543946177528e-01 -1.9343791974134241e-02
    1.0817138996367865e+00 -1.0402482001507098e-02 1. 0. 1. 0. 1. 0.
    6.5316724493651523e-01 -1.0352700832243766e-02
    2.3527088699057305e-01 -2.8750102390248028e-02
    1.0589559191438495e-01 -5.7568373617723469e-02
    5.9537456219121085e-02 -9.5310536788380001e-02
    3.6544894002382616e-02 -1.5360976204178156e-01
    2.4435116732738491e-02 -2.2342452610552213e-01
    1.8040449598609017e-02 -3.0357777033971306e-01
    1.4347328131871021e-02 -3.8847997348318075e-01
    1.2340002153670652e-02 -4.7019583239547175e-01
    1.1332497678375531e-02 -5.3312356540700145e-01
    1.0976936830697366e-02 -5.6650598866125268e-01
    1.1043147742482542e-02 -5.6278365603933089e-01
    1.1601952764605759e-02 -5.2716469557117129e-01
    1.2738150523733418e-02 -4.6805739652434009e-01
    1.4423444732045322e-02 -3.9580504525709581e-01
    1.6997044748378556e-02 -3.2478944599478732e-01
    2.1107963135629754e-02 -2.5570503161948921e-01
    2.6973584154826809e-02 -1.9461171231865995e-01
    3.6514784921153232e-02 -1.4457420509781937e-01
    5.1060803624541448e-02 -1.0177354277104227e-01
    7.5086963606358748e-02 -7.1425222681155323e-02
    1.1955398329308130e-01 -4.7777756856691722e-02
    2.5292947381802755e-01 -2.5752435925905506e-02
    5.1297176906466124e-01 -1.1379423743751069e-02
    2.4583835782087951e+00 -4.7528749178703368e-03 1. 0. 1. 0. 1. 0.
    4.2538092194313197e+00 -6.6643011104424010e-03
    6.1654432262170566e-01 -1.0964213203956000e-02
    2.1602544608191854e-01 -2.7604451585167823e-02
    1.0864826383686564e-01 -5.1553601190592747e-02
    6.1737350291149698e-02 -8.6771845834210895e-02
    4.0364909928613746e-02 -1.2839203275243580e-01
    2.8612152561722906e-02 -1.7577589804768851e-01
    2.2694195330940446e-02 -2.2305443764921434e-01
    1.9225169603306887e-02 -2.6664028561813097e-01
    1.7635987363975612e-02 -2.9484431541339895e-01
    1.6989234794794677e-02 -3.0750543293969690e-01
    1.7168678155634391e-02 -3.0518012168766356e-01
    1.8296930547594088e-02 -2.8923177911951814e-01
    2.0057933343472379e-02 -2.6323129112972693e-01
    2.2263524117221829e-02 -2.3372358935880061e-01
    2.5802018189541493e-02 -2.0102782405108269e-01
    3.1346829126865844e-02 -1.6369105191188499e-01
    4.0373375387709659e-02 -1.2766599609265630e-01
    5.5556842332466098e-02 -9.3965139331644326e-02
    7.9579095443036790e-02 -6.5683259060425186e-02
    1.2393037386965705e-01 -4.5926531049863738e-02
    2.0540333524789875e-01 -2.8718809656577044e-02
    5.0190948322325490e-01 -1.5693036508780435e-02
    1.5912073332956527e+00 -5.6753061554211609e-03
    2.3552982263969806e+00 -4.0825169257547658e-03 1. 0. 1. 0. 1. 0. 1.
    0. 6.4460793564548942e+00 -4.0825169257547658e-03
    4.2655553896960768e-01 -1.5121393856472593e-02
    1.9235291492922035e-01 -3.1369554543040350e-02
    9.9074653779864116e-02 -5.3330234885471187e-02
    6.6059337903862758e-02 -7.9228266914997791e-02
    4.6793070342535159e-02 -1.0837665033583997e-01
    3.8155093701435369e-02 -1.3397906785967686e-01
    3.2475493672729311e-02 -1.5751318066969958e-01
    2.9280715938901667e-02 -1.7510551348168438e-01
    2.8337019777137335e-02 -1.8262689734335766e-01
    2.8843043729560394e-02 -1.8053534074685540e-01
    3.0495643608517826e-02 -1.6987649098197535e-01
    3.4411445280974971e-02 -1.5315731360838736e-01
    3.8312780160134272e-02 -1.3543312368073065e-01
    4.4941565784027020e-02 -1.1648029922513764e-01
    5.5227542355114533e-02 -9.3951254136442341e-02
    7.1958047886264295e-02 -7.2576887098086171e-02
    9.6920183237295565e-02 -5.2364359666723509e-02
    1.5261325299611461e-01 -3.6382999514273727e-02
    2.8569172361868639e-01 -2.1503063731033129e-02
    8.0531623469345792e-01 -1.3019279127544236e-02
    8.6984809647906935e+00 -4.4942151651418587e-03
    4.1517121278862037e+00 -4.0825169257547667e-03 1. 0. 1. 0. 1. 0. 1.
    0. 1. 0. 1. 0. 2.2855909048659870e+00 -5.7901636256605001e-03
    5.8099546031975102e-01 -9.0538459233161193e-03
    3.8443818204485203e-01 -1.6005442979134008e-02
    2.4797937345246546e-01 -2.2119760111959919e-02
    2.0937992323957350e-01 -2.6845995824700649e-02
    1.6186917948672025e-01 -3.1845063244354099e-02
    1.3019713925899318e-01 -4.3748408743342695e-02
    1.0996886744491646e-01 -4.7282947372399249e-02
    1.0102754437895323e-01 -5.3138804550923083e-02
    9.5859856188538567e-02 -5.6622819386299920e-02
    8.7696849394196696e-02 -6.0338355611520469e-02
    9.5082200380204471e-02 -5.6295001438439726e-02
    1.0640768770340518e-01 -5.1366537777357127e-02
    1.2410541878473520e-01 -4.2632279776202958e-02
    1.6549655953012565e-01 -3.3171027081821514e-02
    2.5277062613373452e-01 -2.2462882975751206e-02
    3.5213484965517022e-01 -1.6069086972597599e-02
    5.9285407782360333e-01 -1.1432202800698484e-02
    5.9585189636506186e-01 -9.0072945000518514e-03
    2.8851969640687107e+00 -5.7703939281374215e-03 1. 0. 1. 0. 1. 0. 1.
    0.</input_scale>
  <output_scale>
    1.0526315789473684e+00 0. 1.0526315789473684e+00 0.
    1.0526315789473684e+00 0. 1.0526315789473684e+00 0.
    1.0526315789473684e+00 0. 1.0526315789473684e+00 0.
    1.0526315789473684e+00 0. 1.0526315789473684e+00 0.
    1.0526315789473684e+00 0. 1.0526315789473684e+00 0.</output_scale>
  <inv_output_scale>
    9.4999999999999996e-01 0. 9.4999999999999996e-01 0.
    9.4999999999999996e-01 0. 9.4999999999999996e-01 0.
    9.4999999999999996e-01 0. 9.4999999999999996e-01 0.
    9.4999999999999996e-01 0. 9.4999999999999996e-01 0.
    9.4999999999999996e-01 0. 9.4999999999999996e-01 0.</inv_output_scale>
  <weights>
    <_>
      -9.3943441392409521e-01 5.6508658345937968e-01
      2.4860042785502090e-01 1.8844155992104117e-01
      1.4686243934509458e-01 -6.0977463122909281e-01
      -5.0922342071792093e-01 7.1074050957309676e-01
      2.8887366908887313e-01 3.3671644113953092e-01
      2.0063728662926916e-01 -4.5138293468762947e-01
      5.1036139892065124e-01 7.8848237048005987e-01
      -8.2448033048632796e-02 -9.8021689455320826e-01
      -2.4481857151415520e-01 -2.2601016480067826e-01
      -2.3237355656960745e-01 4.5393405451957292e-01
      -4.9696388482771692e-01 2.6588165851729961e-02
      8.6426980787494090e-01 9.8402182338567612e-01
      8.0731383974016468e-01 -6.0199359870714775e-01
      -5.1712058668955341e-01 -1.0020534550990268e-01
      3.9315313782983674e-01 -8.8353382516533308e-01
      -9.5621046911217333e-01 -6.8234054633206420e-01
      -1.2451576598541636e-01 6.2693989742421685e-02
      -5.1404055137508320e-01 -5.7487692203795260e-01
      -8.4856094320541242e-01 4.9434400131197043e-02
      6.1560650436878550e-01 4.4917731786150883e-01
      -8.6022358154401823e-01 2.1430009610995393e-02
      -6.9423708778728321e-01 7.4553754236425829e-01
      -8.5229128304631607e-01 -9.1920011494012188e-02
      -3.4635026052428064e-01 1.8636617869707606e-01
      -4.7331614228696139e-04 -8.5610897315136858e-01
      -6.3824218824941792e-01 -1.7247804426535840e-02
      -7.3970394065283784e-01 7.7322312955960149e-01
      3.1084055481864881e-01 -2.3957350867805605e-01
      -8.7940137233931026e-01 4.6447569341683859e-01
      -6.4959346431682929e-01 -8.3023603243770361e-01
      7.5606624510181297e-01 1.9383586534603636e-01
      -9.7059410451749151e-01 -5.0681632822974820e-01
      -9.7916407834792052e-01 8.4877310111795157e-01
      -4.1472189707048612e-01 -1.4643559454270549e-01
      2.9463636885701883e-01 3.5272036324396128e-02
      -5.2303272743560258e-01 5.3351889122888951e-01
      -6.6348646362364105e-01 -3.6687284061073933e-01
      6.5015406350694382e-01 -6.0781348617586084e-01
      9.9364351357314229e-01 6.4582451959407483e-01
      6.9219829110677544e-01 -5.2557652974824554e-01
      -5.8913370658860553e-01 -3.4576059518313618e-01
      1.6718029450704863e-01 2.1740766721310534e-01
      3.2260003823537109e-01 -1.1531053601424190e-01
      -5.1343768656251310e-01 3.5940402718979847e-01
      5.4902079204761867e-01 4.2250392157802175e-01
      7.1879665875581678e-01 5.6967642244288030e-01
      -4.0025972153009592e-01 -9.4659513279783947e-02
      8.4388019531862191e-01 4.1226501992056108e-01
      3.5888940322749718e-01 1.5019472892924446e-01
      4.2487593970374782e-01 -2.1970541347385519e-02
      7.7944267919660071e-01 7.1956010029495965e-01
      2.6853778797673811e-01 2.0046290429312696e-01
      2.0537425540179166e-01 -8.2792837187067669e-01
      -7.5671243850335812e-01 -9.4573400183651601e-01
      3.2409452490334756e-01 -1.6834538674612864e-01
      1.1048436702681386e-01 2.8077644087969311e-03
      -7.5070137869266551e-01 3.7382848858205864e-01
      6.6422584821384856e-02 -6.8732873735134770e-01
      -9.8672351053590279e-01 8.5599916594412417e-01
      3.8649805010314275e-01 -4.4988563302825546e-01
      -1.0219526249642321e+00 1.6604518464526328e+00
      2.6739266988338821e+00 1.5031453245776203e+00
      -1.6392973872206124e-01 -4.0444919115894482e+00
      7.6211442202165480e-01 2.1793742329393790e+00
      -1.0348032604133497e+01 1.4506792296922868e+00
      -1.1482895307756740e+01 2.4186653904163209e+00
      2.7148536684639604e+00 -2.2332957698554887e+00
      -9.7219041032924682e+00 -2.8240300856912026e+00
      2.5444639139937224e+00 2.4021881644823568e+00
      -8.2876303140831382e+00 3.2941483846075874e+00
      -1.8706228218164657e+01 1.5866077222398016e+00
      1.8028123062449886e+00 -4.7665504778991128e+00
      -1.6008007074107319e+01 1.0777265425273721e+00
      2.1798395972882840e+00 1.8069800571446861e+00
      1.1421281581717577e+00 1.6584707626570592e+00
      -1.8945572367153325e+01 1.2020884830664280e+00
      1.9001047804706583e+00 -3.8026487820458579e+00
      -1.4363432699699139e+01 1.4899469420625850e+00
      1.7350893535191627e+00 9.3918368948325326e-01
      2.0327027130022524e+00 1.7551395193681141e+00
      -5.5310112022431679e-01 -6.2574779435712369e-01
      -3.1058389961988064e-02 -5.2690154760856078e-01
      -9.2521951670666458e-02 8.1857101647207564e-01
      -1.2348549974573642e-01 -8.7981887194671882e-01
      3.8307071801460868e-01 -2.4038995964032606e-01
      -2.9304682745516009e-02 5.7183954636406042e-01
      7.1432657506310449e-02 -4.0720280356567973e-01
      -3.6891979847444145e-01 -7.5121284628929719e-01
      -5.7625859195047613e-01 7.1456601108754536e-01
      -4.2241663606481938e-01 -3.9452185614707025e-01
      -4.4316718265863164e-01 -8.4032973778575437e-02
      4.8846833111639776e-01 9.5841026237931448e-01
      -7.5000101666449492e-01 8.9893836878297795e-01
      1.2705710354398669e-01 6.7108395223880413e-01
      2.8670322454201091e-02 2.2212150515130991e-01
      -3.1915808939125556e-01 3.6822414891598809e-01
      -5.5330926335812847e-01 -4.6532937566185328e-01
      -7.4999726602470118e-01 7.5702835330366147e-01
      3.6012923520110207e-01 5.5265766135572036e-01
      1.0331305417286618e-01 5.0067128782975079e-01
      5.8566721932381860e-01 -4.0690921367479260e-01
      -6.3465353822405168e-01 6.4667197202007864e-01
      -6.3725156910419711e-01 -8.9920541315593827e-01
      -4.9878328838524411e-01 8.2685614190170842e-01
      -7.8465092877246678e-01 8.3381076305070856e-02
      -5.9913752002407827e-01 8.7064979525599395e-01
      4.1018654586996361e-01 -5.7481740291973482e-01
      5.6962231477832392e-01 5.1936970228221790e-01
      1.8469644003066632e-01 1.7252432782182425e-01
      -2.1265130903970553e-01 6.6037100090363188e-01
      -2.8396991347000067e-01 -4.5861206985084080e-01
      -8.6135227542445247e-01 -4.2176596014812828e-02
      -7.0797810464159117e-01 4.9115441813336602e-02
      7.0236669990783862e-01 6.2149079964630083e-01
      7.7398548577314119e-01 8.2305369132952189e-01
      -7.5678580456146238e-01 -2.6752424689679921e-01
      -6.9246628490137452e-01 2.4928847709365209e-02
      -2.1090157342448457e-01 -6.0675618658842512e-01
      2.4321133562606456e-01 4.6479379649411845e-02
      9.9310901196455048e-01 -2.5350403098156193e-01
      6.7467431785880350e-01 3.2871769325201949e-01
      6.5206794091981468e-01 -7.5458090222111940e-01
      -9.4171930203729415e-01 -8.9692204099226347e-01
      7.9756159825949324e-01 -6.6363480290154331e-01
      8.8853299939105224e-01 -9.1289596749749546e-01
      -9.3030276996609673e-01 9.2103845564766273e-01
      -5.0011236441175644e-01 -1.9612242320088313e-01
      -8.5158762136430777e-01 1.6715002568027137e-01
      5.1339789696151605e-01 7.8596116096149271e-01
      -4.5853334250878131e-01 2.5822583847729397e-01
      -8.5051302234390413e-01 2.2029650209709950e-01
      6.5679282854788834e-01 -3.5940400346568147e-01
      6.2122765862206641e-01 -3.1880570496186411e-01
      -6.9808341125373263e-02 -7.6668973275857044e-01
      -5.8403174971092220e-01 1.3815321310687589e-01
      -9.4104030637524738e-01 -6.2939920687538331e-01
      8.8848529782978125e-01 -3.4228718725022411e-01
      -1.7600253830333279e-01 -9.6625892231943600e-01
      -1.8499811013142053e-01 -1.3082224536496145e-01
      9.9072787834572784e-01 2.6225007854149274e-02
      7.5716275345891937e-01 -4.0013723312373350e-01
      -1.7641798309730683e-01 -7.2377205719444038e-01
      9.1399987649562964e-01 -6.0180817847676638e-01
      7.3014626806037808e-01 9.0064715950092467e-01
      7.7251361457678747e-01 4.7748067975854736e-01
      -8.2884227148099743e-01 -1.8220081617286277e-02
      9.9932812134760907e-01 -5.6549667850696395e-01
      7.3258831133758684e-01 9.8343975365393632e-03
      -6.9397591599610009e-02 4.3230485879801295e-01
      3.1121997899254539e-01 -7.5380453556922733e-01
      -8.1695943680523075e-01 -5.4512663800339900e-01
      -3.0657948721605610e-01 5.2112269966911828e-01
      -8.2234169296536175e-01 9.7654877027563436e-01
      5.5326078977414728e-01 9.6642377176343497e-01
      8.8637612176699965e-01 5.9346094261679871e-01
      4.2695201109314573e-01 7.5881855561516676e-01
      -8.6876850290544150e-02 3.1934841215271059e-01
      -3.1781470334517370e-01 1.2167516051362193e-01
      -7.8811380416435783e-01 -3.5259783598198036e-01
      -9.0461586635654001e-01 9.0790511590251199e-01
      2.9204618822491017e+00 1.6848041185602027e+00
      -1.7619748897910561e+01 7.5574134507939561e-01
      2.1681354510267750e+00 7.7033097165689290e-01
      1.5824802330474030e+00 5.8230151455571799e-01
      -1.1198338315746071e+01 -1.4995335687510677e+01
      3.6549908294638458e+00 1.9197330516549030e-01
      -1.7590898466305774e+01 -3.5466338114643198e-02
      2.2368723505782016e+00 7.1586928863576460e-01
      2.2780847908721586e+00 6.1885950439128412e-01
      -9.5869754450850948e+00 -1.5658345546272876e+01
      -9.0937459741510451e-01 -8.0176316663935552e+00
      -5.1464532348114789e+00 -1.7218676138875694e-01
      -2.3321717731690161e+00 1.7898770360580976e+00
      3.0569325720223426e+00 -1.6876230354965543e-01
      -1.5460291454814625e+00 2.6345471638809675e-01
      -4.5233378713343814e-01 -6.1525860901532301e+00
      -2.3381613783599766e+00 3.0458508859351667e+00
      -1.9699437443141834e+00 -1.2398380981353825e+00
      5.1958029701771249e+00 -2.5396460312301010e+00
      -3.4567495127982364e-02 -1.8497971021321875e+00
      4.0315014928419313e-01 -3.4022076200331948e+00
      -4.5370628283180370e+00 3.8940864056853458e-01
      -1.5697671544341529e+00 -1.3601215009977448e+00
      1.1234922740752302e+00 -3.4272748184840940e+00
      2.4558017230955973e+00 -5.4635975161894441e+00
      1.5108085541022456e+00 -2.5797847266818097e-01
      -2.8315142839413108e+00 -5.8067469843612540e-01
      -6.1266787450967886e-01 -3.4619077158164319e-01
      3.6442070256167556e+00 -3.2268549176730645e+00
      -2.0638299578765068e-01 -1.4988071939833822e+00
      1.8744600995345182e+00 -3.4666465617270487e-01
      -2.1676525999054639e+00 9.8753711117579701e-01
      -5.0646346846905377e-01 -1.3540283091098819e+00
      3.4619623905652515e+00 1.2331568443119059e+00
      -1.9842625721247136e+00 5.2037954574836554e-01
      5.2161063062930990e-01 -2.9837286176572603e-01
      2.8892578296992264e+00 5.3843180289664954e+00
      2.4234120425357783e-01 -2.0352476638630712e+00
      8.1034088269189155e+00 8.8538936230133580e-01
      7.5167797351242793e-01 2.4736358322717408e-01
      3.3948141662305451e+00 2.4900881271297366e+00
      -4.0829847848373180e-01 4.5847921366244160e+00
      -6.4836432517544162e-01 4.8408812595871525e-01
      9.5146875556612436e+00 -4.0484203419041025e+00
      -1.8169453527676338e+00 1.2422259113515148e+00
      3.5233478123004098e+00 -9.4095598232574562e-01
      -3.3566900921413998e+00 6.5433364048211269e+00
      -3.0975365349212275e-01 -9.2095089386740747e-01
      1.2558627890227472e+00 -1.7954878882156866e+00
      -2.1703143919988035e+00 -5.0388062634807351e-01
      -1.5197985511734649e+00 -1.7324679061855381e+00
      -5.8590960298448147e+00 9.3038885911477021e-01
      -4.2405468146079589e-01 1.6361143945617407e-01
      1.1541492820457997e+01 5.9715552952798101e-01
      4.0586972226684909e-01 2.3397172148521106e+00
      7.4306263657964122e-01 2.1781815743359858e+00
      5.6591021740448839e-02 -1.0455835758983087e+00
      -1.0345268274256092e+00 -1.6125656848993795e+00
      8.4853302260526267e+00 -1.2447016507502027e+00
      -2.0550030723001571e+00 1.3908320146417947e+00
      -1.9991062020689601e+00 -2.5640481749494159e+00
      2.5852332995519856e-02 2.1639128467593158e+00
      -2.2894829168171826e+00 6.1336255406195292e-02
      4.3806313460181832e+00 2.4347486163146656e-01
      4.0529805652609119e-01 -3.8032188708919588e+00
      1.7029808408191758e+00 -4.0604359059777290e-01
      -5.3994252287378774e+00 5.3307037049270299e-04
      -7.4063487639861758e-02 4.7033703265401270e+00
      8.0860862961969673e+00 2.6043784713553539e+00
      3.2674808033433972e-01 8.7222824504428531e-01
      2.5272719274290214e+00 -3.3315004473422283e-01
      1.2753711783828809e+00 1.2331049806272814e+00
      5.3690643811399641e-01 1.0494909398148404e+00
      6.2933629228959251e+00 -3.1665253070490587e+00
      -4.5985532069116980e-01 1.8687530327152504e+00
      -6.4974195328494733e-01 6.9740448324230042e-01
      -1.5837883944015718e+00 1.9805470736713058e+00
      -4.6708664830455182e-01 -2.9990741031386192e+00
      6.6478526868974184e+00 1.6034076029290939e-01
      -1.9651758557377892e+00 -9.1066189232887185e-01
      -7.2633257345258007e-01 1.5511341034642639e-01
      2.0823789400608059e+00 1.1761014235137696e-01
      -2.7651199499078998e+00 -3.0380190816369104e+00
      4.5926284041664447e+00 2.1150181469262517e+00
      -6.4139857725745908e-01 -2.2714791857224546e+00
      -4.9702721147005198e+00 -5.6687198531167615e-01
      -1.3229373850353374e+00 -4.8013917914848232e+00
      -3.7628884650002492e+00 1.7086232632329590e+00
      3.9734345263469577e+00 -4.9206511209599926e+00
      -5.1942052993932295e+00 -9.0659749412621213e+00
      1.7078365780943912e+00 -1.9191311045202946e+00
      -6.7456098858986335e+00 -6.9775161895350815e+00
      -6.7344404509466340e+00 -3.7852785814486993e+00
      3.0353340409690204e+00 -5.9471172295608472e+00
      -2.9200304493286855e+00 -4.2629730049438957e-01
      2.4003105731288787e+00 1.1440851725169365e+00
      -4.3674321716296793e-01 2.1457044692007963e+00
      -5.0837262466205928e+00 -1.2475736359299422e+01
      8.9291159050660240e-01 7.8611991949844484e-01
      1.3755424636810554e+00 3.1439621603988250e+00
      -1.6531694028628052e-01 -4.0454269896152761e-01
      8.4452581990918807e-01 -7.1202898612288812e-01
      1.3593501753147330e-01 3.1245494925243489e-01
      2.6469071496537655e-02 -1.5261710134874351e-01
      2.7143487063534733e-01 -1.5587975827813039e-01
      3.6740641499775428e-01 -4.6133381191007172e-01
      -7.1875576448683676e-01 5.8730731973616113e-01
      -1.9796660468753424e-01 -9.2580119451070919e-02
      -6.7693020860370856e-01 2.2504940484689762e-01
      5.7305987473084974e-01 3.2627907106364584e-01
      -9.8707522997771746e-01 -2.3988690208424879e-01
      -3.9393169515096405e-01 2.1762450269228628e-02
      5.2052252157625056e-01 -4.3443327377182239e-01
      -2.2549312845074743e-01 3.1869824979403227e-01
      2.0727963282444484e-01 -2.9493341071494172e-01
      -2.5738247046456419e-01 -9.0224137946880800e-01
      -1.1352370111274723e-01 -7.4819426510966380e-01
      -7.6675941482165066e-01 -9.0905723964680429e-01
      -3.6094182607037284e-01 9.7702024051758296e-01
      -3.4563225245870244e-01 -7.6423735255558201e-01
      -2.9601935448527561e-01 -5.6534880847150637e-01
      3.7157401085371133e-01 -5.9043517062810458e-01
      4.5776352036786161e-01 -7.5999814351199579e-01
      4.0630175315183781e-01 -8.2363113391126119e-01
      -3.2677830717970813e-02 9.2416070237165115e-01
      -6.9281328749532833e-01 -2.0191622454101010e-01
      7.3620901070506783e-01 3.3389254548736713e-01
      -7.5112557682809611e-01 2.8561958382138131e-01
      -1.2647610067503035e-01 -6.2755650019988873e-01
      -7.1178288875661888e-01 5.8323290572759823e-01
      1.8939162721938372e+00 2.3114219307222492e+00
      1.3846323970648291e+00 -1.8008682397303855e+00
      -8.8383905730373991e-01 3.0081862404308075e+00
      2.1696692624347609e+00 -5.2024982336479741e-01
      1.7314333987400496e+00 -1.8719471891301314e+01
      -6.9085859839544481e+00 1.8944312874779963e+00
      2.0276981810944541e+00 1.6218564640653454e+00
      2.3117136203490412e+00 1.0376029383934462e+00
      7.6987034362757258e+00 3.6416109447860703e+00
      -6.1859234301967767e+00 -1.2518251024332367e+01
      7.3300962899975208e-01 -5.8168795821503971e-01
      -3.5172173962991020e+00 3.6215467534555890e-01
      -3.9672438447122249e+00 -3.1302652655007570e+00
      1.5785808735934715e+01 -1.1230501615399271e-01
      1.8877950053908148e+00 -5.5428116002827341e+00
      2.3014419710675368e-01 -8.6277684116516831e+00
      -1.0300277120206577e+01 1.1285119483251949e+00
      -1.1071967727943977e+00 -2.0903585484986311e+00
      1.3906598893165441e+01 -8.8483594391735421e-01
      -6.2773717750172642e+00 -3.7173210356178203e+00
      -5.4702004023698318e+00 -1.5790640723437450e+00
      -1.8165474166584457e+00 -2.3642830585798391e+00
      -2.3858844916876816e+00 1.4845961609135561e+00
      4.5232096372999191e+00 1.4455482515484863e+00
      -1.8645864979720439e+00 2.0533139798066222e+00
      2.0998593953885520e+00 -2.5349879819196177e+00
      -2.8335436774936889e+00 3.9224378022716033e+00
      2.2992053321371921e+00 3.4533211671123176e-01
      3.3689887567983763e+00 -1.3832346854615187e+00
      1.8968594455874350e+00 -4.0678570310738449e-01
      -2.0965323714523936e+00 1.3552143159294057e+00
      1.3635518727605478e+00 3.6120016245372915e+00
      1.8892829162251654e+00 -6.7151247889931232e-01
      4.2721245489207895e+00 -2.3728715527455004e+00
      1.2692534397880753e+00 6.2705528084598039e-01
      -3.9108822132086076e+00 7.9778292175743859e-01
      2.8842170828942018e+00 -1.4135517817142945e-01
      2.4059967192499090e-01 -2.6529880196192077e+00
      -9.6978971941999037e-01 2.6794300240398461e+00
      4.6996018551309930e+00 6.1812181779059614e+00
      2.8851331663995947e+00 -1.4007086101898489e+00
      -4.7511100551097787e+00 -2.2743524407915614e+00
      -2.3990401169769018e+00 -1.1346370880185150e+00
      2.1886538067394010e+00 -2.3206106765167384e-01
      5.9684892679380352e+00 -3.4873910626838316e+00
      -1.7192010583664064e-01 2.3951185232974073e+00
      -1.1634797200929217e+00 9.8680395739968130e-01
      -1.7507103894878173e+00 -2.1548056207094950e+00
      -2.4330658595527491e-01 -4.1171613433235379e+00
      4.5140664114600915e+00 -3.8941478138449241e+00
      -7.2019729795693355e+00 -5.2303974498770645e+00
      1.5155390773321673e+00 2.1409410005605003e+00
      -1.1813823588206969e+01 -5.9222233499628372e+00
      5.0443046144490566e-01 6.9447128651019945e+00
      -1.5417603703995828e+00 2.9256909938092881e+00
      -8.3488184436509061e-01 1.2452735045515704e+00
      -2.5795154137804177e+00 1.3599016977399068e+00
      -2.9258056455563994e+00 -2.9931712293676780e+00
      1.7498102423338917e+00 4.4515458437180113e+00
      9.8089742847634842e-01 6.4067525188060692e-01
      -2.1769753537982063e-03 2.8385533686165645e+00
      -4.9364204525321087e+00 3.3692732726021473e+00
      -6.4809614694887019e+00 -1.9269332092290088e+00
      -5.1675021248264952e-01 6.1143924854127061e+00
      5.7909686022510503e+00 -4.0187904206691272e+00
      -3.3922405034322765e+00 -6.6137235495115432e-01
      -5.0657122742600738e+00 -8.2815334634783824e+00
      -1.7695701960678334e+00 -5.9229316662646125e+00
      7.6328433335759061e-01 1.2856102305256945e+00
      5.0905871579447926e+00 6.4015939418836987e-01
      5.4886083718640615e+00 3.7312392243135557e+00
      8.4603867520637834e+00 -5.5876413733362329e-01
      -1.5822811771515429e+01 -7.9373095549912787e+00
      4.5048333852427884e+00 -3.8287465566125358e+00
      1.9802847407760198e+00 2.6181485241170082e+00
      -8.7918085279026030e+00 -3.0453705593386351e+00
      -8.6011228991642632e+00 -4.9161807437574341e+00
      -4.5436963687452998e+00 -1.3627791588431728e+01
      5.3575339155082391e-01 5.2940386698279696e+00
      -3.3979462625973560e+00 -5.5898004534992509e+00
      -5.9514901979729649e+00 2.4218534247482379e+00
      -1.0587013955395055e+00 7.6759846347909289e+00
      -3.2602088609423756e+00 -4.7162349746396162e+00
      -9.3415385738601731e-01 2.9638885710984608e+00
      1.4227338360639334e+00 5.6572070480823822e-01
      1.1328797797363095e+00 -9.5206405167744634e-01
      -5.1746273089210124e+00 5.7256947102965201e+00
      5.1421428029450192e-03 1.6060442727050175e+00
      1.6087071794833644e+01 2.2318178940507121e+00
      2.3150408247420846e+00 -6.2084180357596441e+00
      -3.1916564336221906e+00 -7.3012250104127696e-01
      -6.3121863186242999e-01 3.2525582601163245e+00
      -1.1877636473105782e+00 -4.6513943468932961e+00
      2.3347112876544625e+01 2.7838823034263549e+00
      4.9662319045670076e+00 7.2135633407065622e+00
      1.3461720059120338e-01 1.1970927447018915e+00
      -1.2354821616589657e+00 -3.7376162779757633e+00
      -6.3961946677928083e-01 -5.9685962330859512e+00
      1.8372359671250841e+01 2.0925933544187583e+00
      1.6045311236422459e+00 -3.6245559460437322e+00
      9.9208360140287855e-01 -1.3400477938827351e+00
      -1.2912481969467691e+00 -3.8116103339542668e+00
      -2.4358182182313273e-01 -7.8651751111784007e-01
      1.2801490733166355e+01 5.7431616831083776e-01
      -9.1040006531109374e-01 -1.4353865728469988e+00
      -6.9430575137452955e-01 -1.9470092268072765e+00
      2.8459691401845200e-01 2.8217586581942289e+00
      -2.4916427952049394e+00 -9.7691812010448409e-01
      1.1698483783467029e+01 2.8180175278916901e+00
      -1.4509007175467805e+00 4.1365085575270155e-01
      -1.5826064080269220e+00 -3.4038749702602504e+00
      2.7425619337888598e+00 -2.7736039260173508e+00
      -3.3631138969091245e+00 -2.5825165927785554e-01
      5.5126471080272230e+00 -3.2734654180405709e+00
      -2.5068093931086328e+00 -4.6021675405949622e+00
      -5.0862725558643831e+00 -2.1277924483158719e+00
      3.0358367486143916e+00 -1.7208199372904875e+00
      -8.8628221309667516e+00 -1.1396821971129976e+00
      4.2476887467204105e-01 -1.7201885222137854e+00
      -5.8885601538684806e+00 -6.5762491812665553e+00
      -2.7736812622704798e-01 2.2484271918701459e-01
      -9.5580913280439272e-02 -3.7627028669931750e-01
      -9.8259096357083786e-01 6.4371029222039811e-01
      -6.9178056821278266e-01 3.9813924027015668e-02
      3.1201065684688811e-01 -9.3199978695353236e-01
      -3.6617190364913410e-01 -2.8182858334162642e-01
      -1.2068676050212535e-01 2.1855726244601836e-01
      4.1681920307678211e-01 8.2474659138419226e-01
      3.4811708112457396e-01 4.2532376547931805e-01
      -2.4045245703700469e-01 7.1914887367786862e-01
      -6.4168673253617348e-01 -4.9018350528142152e-01
      1.5457938435403529e-01 -5.3693954461971649e-01
      8.1265947723266785e-01 -9.4933880046532049e-01
      -7.9738560917292689e-01 9.3813711110620357e-01
      -2.0635210904912404e-01 -7.4103999976559698e-01
      -4.7993913750860107e-01 9.5641921638574945e-01
      -8.6656475366280616e-01 -6.4989510622425017e-01
      1.2701872867112840e-01 -1.0575386187505043e-01
      4.1580897965965158e-01 7.2218134655669419e-01
      3.9626199613127344e-01 9.9525977365605023e-01
      2.2545854548989785e+00 2.0787302653481987e+00
      -3.6000279915185058e+00 -1.8414290644066538e+00
      -4.0043480836214534e-01 3.7990670578226662e+00
      -1.9724009543265928e+00 2.2301662237472786e+00
      1.0179312313548596e+00 -1.7176173374368286e+01
      -1.2487322949759879e+01 -6.0847866644401121e+00
      2.4993202685679679e+00 -6.6196372723492924e+00
      6.1437113255526317e+00 5.3956322172099878e+00
      9.0508050741276307e+00 1.5468645062811293e+00
      -8.6325425868176300e+00 -3.6708236484015946e+00
      -6.6122385077881463e+00 -2.4020175355158928e+00
      -2.2697929371141581e+00 -5.2763649401623560e+00
      -3.4369569412896563e+00 1.6033405447174176e+00
      1.6515283007965095e+01 -9.2964529845123351e+00
      -7.2701978045737903e+00 -6.1447370951731566e+00
      2.8187439909411260e+00 1.8800793141045335e-01
      -1.1336475336695853e+00 4.5495573940382830e+00
      -2.9412096411403512e+00 -7.9938328323914198e-01
      -6.1369590959411831e+00 -1.1709936847227282e+00
      1.3436554020665259e+00 -2.7979224053949365e+00
      -6.3370832665847576e+00 1.7569379608946800e+00
      -2.1143786114856606e+00 2.1413071077982586e+00
      -1.1642286871576824e+00 -1.5705282127961353e+00
      1.4874842175368765e+00 -1.2255119208102843e+00
      2.9545251128868459e+00 3.8183248690524541e+00
      -3.1565413874677333e+00 2.0019467797246753e+00
      1.1950609614785823e+00 -9.2005049802430854e+00
      -1.2364349331055376e+01 -2.6108829947674348e+00
      1.8879166121332707e+00 -6.1371672750621953e-01
      5.2429652463976097e+00 2.7409107792117298e+00
      5.3932565828707917e+00 -1.1013122569365342e+01
      -1.0069146639204611e+00 3.8874042273638238e+00
      -8.2211148869249229e+00 2.3107103832387721e+00
      1.4682421598788438e+00 9.1988652333863463e-01
      -9.9624631407843123e-01 3.3526449961090394e+00
      -1.0160998717921803e+01 8.7155718341539981e+00
      3.6265932861782519e+00 2.1117923351081083e+00
      -8.3785983598159959e+00 -6.9418274869846428e+00
      -2.9742942467956990e+00 -1.7174383685743460e+00
      -4.4000115362704300e+00 -2.1588739195671058e+00
      -9.5333323059401103e+00 -7.4100712375394808e+00
      7.4957555249952779e-01 -8.7954847977204036e+00
      -1.3253759618070477e+01 1.2650007543038793e+01
      -6.9586972064107711e-01 -2.8770870942654674e+00
      -1.4592724748626965e+01 -4.2478241656983160e+00
      2.7345224505123095e-01 -5.1519013539948002e+00
      1.2302111867724406e+00 6.9516165471537956e+00
      -9.1402701736002196e+00 -8.1372017644861820e+00
      4.5821434718848124e+00 -1.9363775803202743e+00
      -3.6398872174164794e+00 -1.4585052870963249e+00
      -2.2905142638384519e+00 -4.0630126464406278e+00
      -1.6140704692130354e+00 -8.6292839579033007e+00
      -6.2400994319430394e+00 -5.8936601822984847e-01
      -9.3869830089735924e+00 2.5428833704117872e+00
      -2.0317509180590734e+00 -5.7419943614497226e+00
      -3.3377373821299066e+00 4.3675443575160094e-01
      7.9604417210479061e+00 1.3484639200893520e+01
      -3.2105010784912061e+01 -4.2944641088045907e+00
      7.3304493941212030e+00 -8.8877737283481331e+00
      -1.0458346797382287e+01 -3.6328734347256382e+00
      -3.9115452323136362e+00 -1.0440536496377200e+01
      -1.1158938122479132e+00 -1.2904119585241855e+01
      -7.7057021513482982e-01 -1.9291849816299393e+00
      -6.1726929082187532e+00 1.2952971862244691e+01
      -1.0319972981207187e+01 -5.9470858826970847e+00
      -6.7163422839246945e+00 6.2457708047001859e+00
      -1.1014448465166402e+00 4.9902675890523507e-01
      -1.1579938113657239e+01 -2.4585517172213822e+00
      3.1350681178468407e+00 -3.3944250504000779e+00
      -1.0532598583007914e+01 1.1924228316209653e+00
      -2.0863757536357692e+00 -5.2110895988333983e+00
      -9.6226583054128989e-01 6.6288970056627639e+00
      -2.2470685412656572e+00 -4.5454761912408079e+00
      -3.3032158085672743e+00 -2.0753799241811985e+00
      -1.2978242068459984e+01 -4.3515255436767655e+00
      8.8192712282857699e-01 1.3677219342592301e-01
      -2.7074578600639168e+00 5.4897610784513633e+00
      -8.4276759503011451e+00 -1.7710748772121394e+00
      -1.9957214437362054e+00 6.6618832397741103e+00
      1.1709579860973621e+01 -2.8798170642367893e+00
      -4.3971664629165579e+00 -4.5113353840844264e+00
      -2.3818060023631373e+00 -8.2523048496181080e+00
      -1.3630259703672094e+01 -8.4774771509884275e+00
      5.0482154512331501e-01 3.4784465068421828e+00
      -8.2756010259148809e+00 4.0361193026206461e+00
      -6.0382766644770802e+00 -3.2711754827680362e-01
      1.1150023408302674e+00 -3.1458616981358154e+00
      2.0526991935394547e+00 5.1148126574475894e+00
      2.9885545303862053e+00 3.7651929365207448e+00
      -1.2956590892458193e+01 -4.0533924041757823e+00
      1.9948371999193348e+00 -2.1192169350488788e-01
      -1.2000050777491025e+00 5.3973556469166537e+00
      -1.1308555653606577e+01 -9.3669195760035606e+00
      2.3307428824597647e+00 7.8861914214050199e-02
      3.3585149234168932e+00 4.6064201688182854e-01
      -7.7115513830210602e+00 -2.6431796768655293e+00
      -3.1226041845507582e+00 -4.8038029566706628e+00
      2.8612141755778224e+00 1.0261173891516504e+00
      -2.8391060924403204e+00 -9.2175018398982083e+00
      3.4171565975862590e+00 -1.1440572598551209e+00
      -3.1256684345766557e+00 1.8433745922610678e+00
      3.0995975747852249e+00 5.6742484426853004e+00
      -5.0962925465579954e+00 -1.8397882502108966e+00
      4.7308854846825747e+00 4.9397894669280777e+00
      -2.0199729830725937e+00 1.2048405525751140e+00
      1.9788844834959827e+00 -1.5561502102241354e+00
      -1.2098823521890545e+00 -5.2664224385932412e+00
      -6.6139810760029616e-01 -2.6359374277777587e+00
      2.4348629664793020e-01 -4.5553385721042385e+00
      7.1410357551951362e+00 -2.2187033450134872e+00
      -7.2101630914880284e+00 -1.5902056853536732e+00
      2.4999283513538302e+00 1.2297726825913540e+00
      -2.4641235016260139e+00 6.3078783878462485e-01
      -3.5444077052793728e+00 6.4296809769164531e-01
      -1.2649416576674231e+00 -1.7940031693920289e+00
      -6.8357946604968296e+00 4.0397641924665822e-01
      -7.1175375666668304e+00 -1.1713068536498945e-01
      -7.1269280584717070e+00 -1.6493354091579715e+01
      3.0443083591344390e+01 -5.5275734236145124e-01
      -2.7010480234314800e+00 -3.3542460020738298e+00
      -4.8148481969067687e+00 7.2859881739096821e-01
      -3.5005381391303660e+00 7.8694294098930317e-01
      -1.4098553359588932e+01 -8.8716159410517665e+00
      8.5630270198432452e+00 -1.4835528926411365e+00
      -1.6994173094855116e+00 -4.9703370489330645e+00
      7.9576005797181626e-01 4.0160528356175895e-02
      5.0796286523003609e-01 4.5917222719448869e-02
      1.6754715715039925e-01 2.9640839141356734e-01
      -6.0961155760998476e-01 -7.7230002569815481e-01
      -6.9647861377661369e-01 -3.6127672383924092e-01
      -3.7387233585069035e-01 -5.7794501977033241e-01
      -6.4150561998677436e-01 -4.3430162696440178e-01
      -8.0831933260561106e-01 -4.4089854010663831e-01
      -7.5836488321500795e-01 -5.5478335754965635e-01
      -9.5062704638848017e-01 -7.8427352859590926e-01
      1.9579503458512248e+00 7.5085742680677539e-02
      3.0193400488002786e+00 1.0123588861786477e+00
      7.5852689113423644e-01 3.1142577330210330e+00
      7.0348229800463569e-01 4.3381200851778229e-01
      8.3771237498818618e-01 9.4514600718399311e-01
      1.0821482000074445e+00 1.9259010387819571e+00
      -1.6319565394426473e+01 5.7303124851456442e+00
      2.3141313202009424e+00 -7.4622943019154198e-01
      -1.0353317168818513e+01 2.6804591531698159e+00
      5.0553268144108596e+00 2.4937092015913813e+00
      5.9107396307126958e-01 -1.3512862733973490e+00
      -6.0646016417005475e+00 3.0135522446923084e+00
      -8.0790621493536392e+00 4.4378384537734755e-01
      -4.9634351915789789e+00 -4.1941026999117286e+00
      -3.1322061196268196e+00 -1.9569877790673103e+00
      -7.9129002046994890e-01 7.1111926044762852e-02
      -8.2939368764405552e-01 -2.1364671711859353e+00
      -5.8590692714622861e-01 -2.7789901827379504e+00
      -1.0811329065497679e+00 -2.5941214670190966e+00
      -1.5842728530641614e-01 2.3011911446701840e+00
      -7.9634723107875194e-01 -2.1548901579550743e+00
      1.7413380130916571e+00 3.9594422756206451e+00
      4.4219408387369139e+00 -2.5854432687826430e+00
      3.1691788213925745e+00 -1.8728468644356655e+00
      4.2255599154858037e-01 -8.4240017771446074e-01
      1.4420536275744100e+00 -2.7609727768816192e+00
      7.1906282687421785e-01 -5.0970679438310738e+00
      -6.1723636740216010e+00 -7.2770165220918237e-01
      -5.5486064143015383e+00 -3.0940331513586498e-02
      9.4037319658948402e+00 5.2538795927071613e-01
      -7.5899293021066727e+00 3.4407448934339615e+00
      2.2615032313982693e+00 -7.4010975088914588e-01
      5.9432234164236908e+00 5.1496693505399183e-01
      -4.4179486879157963e+00 2.6103551892237120e+00
      -6.8439005556513210e+00 -9.4746107309955558e+00
      7.2162004157442938e+00 3.2119361602536434e+00
      -3.7617897449378783e+00 8.8016381842142377e-01
      -5.4217428321636323e+00 -3.4888452568365249e+00
      9.1892374289902068e-01 -2.6263661346673626e+00
      -2.4969371192090248e+00 -3.6043161760249660e+00
      2.0716906099174781e+00 -8.5016894018294860e+00
      6.8628773946391899e+00 5.6782182657827782e+00
      -9.0211624836872950e+00 -4.5287472209912849e+00
      -1.1052692771095338e+00 1.7193729904331645e-01
      -7.1300494395316845e+00 2.8934233873382338e+00
      -2.6440869649192318e+00 6.4209531553467398e+00
      -3.9847677184214358e+00 -3.2061806629444323e-01
      -1.7064129993974526e+00 -3.6634178666339090e+00
      -6.1743502352941180e+00 -6.0233414104375138e-01
      2.2357760020285156e+01 1.4790797404329456e-01
      3.4644992128984131e+00 -2.6800902473115014e+00
      5.1902277760724473e+00 5.4051944091607620e+00
      -5.3329664192702353e-01 -1.4853040145829566e+00
      9.6114434378111258e-01 -5.3223011890777352e+00
      -9.8621673460267694e+00 4.9780468515350114e+00
      -5.9542438555509207e+00 2.6352767069655521e+00
      -1.3869896320027975e+00 -4.7461141661760564e+00
      -2.9338255851992741e+00 4.0411171625560538e+00
      -7.8673915302271356e+00 1.2726806439203688e+00
      7.2328756086736878e-01 6.7888498928428724e+00
      9.2638746301521984e+00 -1.8990875585165865e+00
      8.0281892414229112e+00 5.4728238846800066e+00
      -5.0556358656225819e-01 -7.2536305805274583e+00
      -9.1411609543911485e+00 1.5073155746554203e+00
      1.0854661881538707e+01 1.8188875867280053e+01
      -3.3178008564546646e-01 -6.4661756590677999e-01
      -4.2868631704395241e+00 1.4900369728929641e+00
      -1.4829459522860072e+01 -6.4511195255444571e+00
      3.4757610806370480e+00 -1.7821296926415178e+00
      -7.0991994999576491e+00 3.9093129564034776e+00
      4.1260027268723949e+00 -1.8364130255580096e+00
      -5.6869514975724575e+00 4.9808633368062907e+00
      -1.1863955324014503e+01 5.4096058064735271e+00
      -2.8985676935730589e+00 5.0379886656334598e+00
      2.6690545485100015e+00 1.1663921749033201e+00
      -7.6177042269891455e+00 -3.0553027640128732e+00
      4.8448132952421972e+00 5.0776066305681029e+00
      -7.7179378058062109e-01 -4.4996760743424709e+00
      -5.7902386878653866e-01 6.6483472842872109e+00
      -7.8073449107212545e-01 6.6698722799398915e+00
      6.4788671587448361e+00 -1.9884292809506678e+00
      -4.9616898363923161e+00 -4.0897442675150817e+00
      -4.0965200484755391e+00 8.0512051923755967e-01
      7.7970828594350934e+00 3.1574867482352382e+00
      1.9699513892011038e+00 5.0774976315574238e-01
      -3.3629061179023743e+00 -4.7061894780195743e+00
      5.6266023884248861e-01 -1.3935770881174236e-01
      -3.8489774386830349e+00 -8.9846497138787385e-01
      -4.5682837228519606e+00 3.1654018978180005e+00
      -5.3941968518277150e+00 3.3710174209824579e+00
      -3.2609771828284123e-01 -3.2684154752337000e+00
      -2.9065537584190415e+00 4.0753251242982218e+00
      -5.4164330954166902e+00 2.9427164129164347e+00
      -2.0873926839785906e+00 2.7511566074181562e+00
      1.4529633524199272e+00 -1.3543355773413294e+01
      2.8740772077889951e+00 -1.2048256127543777e-01
      -2.2642188676694044e+00 3.4435491803863112e+00
      7.4669748564848701e+00 -4.0623526455766799e+00
      -9.2931841754085520e-01 3.4109640752171586e+00
      -1.1100818409049951e+00 2.5852934943202208e+00
      2.3142987749803408e+00 -1.4692745068244135e+00
      -2.6797176154700262e+00 -1.0753622735410197e+01
      4.6321882239556311e+00 5.8038346027486707e+00
      -8.4328806068226914e-01 2.5593630684465323e+00
      -7.2697466624029090e+00 3.3420177845519383e-01
      -2.8266367311295935e+00 -3.1862520120143278e+00
      -2.4191662563900240e+00 -3.3029360033398367e+00
      -2.7924358650098662e+00 1.2143317030365006e+00
      -3.5230817753588042e+00 -6.2200884070631457e-02
      5.0082387869685006e+00 -9.3114456806286816e-01
      3.4569408621234818e+00 1.6714755875672060e+00
      -1.7839995085287670e+00 -5.4769689502147028e+00
      2.8385896606275094e+00 -3.4865353276670810e+00
      2.0537952826453640e+00 3.7213471323868026e+00
      -4.6729090712983838e+00 -7.9157989604150170e-01
      8.6676946349235351e-01 -5.4463525197806861e+00
      -1.1734283057692817e+01 5.4330578000343808e+00
      2.9605511406301943e+00 2.3847793810985491e+00
      -4.9728328918322271e+00 1.9098266811419073e+00
      -3.6474206978738022e+00 1.6747323308316457e+00
      -8.4753599835691364e+00 -1.0776347970713347e+01
      3.4885063906889919e+00 1.4644739795738524e+00
      -5.8633262063988543e+00 1.6869660319787281e+00
      -2.1380188509646594e-01 1.1252088708240537e+00
      2.1264462356302447e+00 -1.3871908082444884e+00
      -4.4639318309906324e+00 -3.8292791640858579e+00
      -2.2658234283786385e+00 -1.3132037469086824e+00
      -7.1980330013472349e+00 5.2352383493117358e+00
      -2.5052541938177741e+00 -3.4996734976521826e+00
      1.0214311108548721e-01 -1.9921671836215840e+00
      -1.2675123060606740e+01 -3.9931774165791269e+00
      1.1999277785168090e+00 3.7950313311655082e+00
      -6.7989170260968255e+00 -1.1242406345447865e+01
      -7.8282247645431964e+00 1.4606407054294077e+00
      1.5927190706671292e+01 3.3614674361597563e-01
      4.3280769412294906e-01 6.9311185564312061e-01
      -3.0079647129321652e-02 -8.9833235924709776e-01
      -2.9574811433153325e-02 -6.2159815502414673e-01
      -4.6043247144258392e-01 -1.2402872005212850e-01
      6.5959500531209514e-01 -6.0901139629868450e-01
      2.6347128449351387e-01 -1.5670966167470357e-01
      -7.4288110422764930e-01 -1.0496564209246084e-01
      6.3796680851314780e-01 1.4096027637686492e-01
      3.1012811696793152e-01 -3.0073955044804035e-02
      -1.5952081489176706e-02 -4.6295447452280469e-01
      -1.5796497121557973e+00 -2.1487767238695081e+00
      -3.6833847887973357e+00 -2.7247041516695725e+00
      -1.8897741872451752e+00 -8.6373400927743316e-01
      4.1482844213220975e+00 -1.6330551040449879e+00
      -1.0467642933142882e+00 1.8590341623437232e-01
      6.3930700422373710e-01 7.1760123480946270e-01
      2.9303448661632031e-01 9.8611334090282021e+00
      2.6318046259643362e+00 1.2425843859370673e+00
      1.6078380207497274e+00 -2.7665822953610366e+00
      -3.4653318349780232e-01 6.4714714509236348e-01
      -1.5848071293924566e+00 9.2199154385896576e-01
      1.5643496417872294e+00 5.3135332245732378e+00
      8.0277698288137633e-01 -5.8992989782485186e+00
      -3.4514693707208806e+00 -3.1111046766965886e+00
      -5.7655699772471651e+00 5.3486475279953458e+00
      -1.1600320516781325e+01 2.7651509307622821e+00
      -6.3968145571132986e+00 6.7877119171720164e+00
      -3.2907277769989807e+00 -6.0223388802477755e+00
      -4.9076424501788658e+00 -4.3205168059603407e+00
      -9.2624842045669453e+00 4.7222004384614564e+00
      1.0724367595968337e+01 -2.2457895886196271e+00
      -2.7796476394542893e+00 6.4897809796561967e-01
      2.0519624729887056e+00 -3.6244848794598892e+00
      1.2128774149576376e+00 3.2903393668867502e+00
      1.5998586171110323e+00 -5.7086118481757098e-01
      -7.8652435015519870e+00 5.1372405065854441e+00
      -1.1434143921125408e+00 9.8562927562259106e-01
      2.7719401910802333e+00 9.3120021241700990e-01
      -1.1044377581857905e+01 -6.2879200585577326e+00
      8.3079963917192821e+00 -8.7130729545279550e-01
      5.9686779891403885e-01 -9.7244216762141580e+00
      4.6148664230273067e+00 -1.0872122294201712e+00
      2.8585653505469049e+00 -1.6485645809816281e+00
      6.7712201085822139e+00 2.6951588963919617e+00
      -3.2179158326173358e+01 1.3282594930218005e+01
      -6.4446265510998586e+00 -4.1250744024512445e+00
      -7.8839105943678103e+00 2.3394698906949696e+00
      -5.5015485195313829e+00 4.1741875713632159e-01
      -3.2201265247790101e+00 4.2991585652460556e+00
      7.7430057823864757e+00 1.4760898876411902e+01
      8.2564591589911505e+00 -5.6136981461471676e+00
      7.8175736041055792e+00 -4.7609129149601559e-01
      -6.5405756886585309e-01 3.7369417210024403e+00
      7.3927134031789272e+00 -2.2229634421153466e+00
      -1.4481050920316765e+01 -7.0345908993487214e+00
      -2.5303801101476355e+00 -7.3855526413531010e+00
      4.3035998562803552e+00 -2.1136647020215200e+00
      1.8790452436957689e-01 -3.6273630075385568e+00
      -1.5798414402922186e+01 -8.9427383963610261e+00
      7.6173617831422451e+00 -8.2066732842089287e+00
      -1.0530984423369398e+00 -5.7023995848993776e+00
      7.1467179985934803e-01 8.3130761286636474e+00
      8.3847545227913152e+00 3.4902713514317432e+00
      2.9358035710878614e+00 6.5436176826134940e-01
      3.2613213913822041e+00 -3.0561886415659156e+01
      -5.2291293897423659e+00 -6.6179351233514723e+00
      7.5249358358721707e+00 -4.7658386218765694e+00
      -1.5112397284768681e+01 -5.0688084346136968e+00
      -4.2689033639568530e+00 -1.1904771669938095e+01
      1.5291862746894480e+00 -2.7928332516872587e+01
      4.5778770193532674e+00 -2.2513770620960232e+00
      -3.1073444307632601e+00 -4.4638938566627262e-01
      2.5420872718464360e+00 -2.4957465210754282e+00
      -9.2042065866590015e+00 6.4450231332463481e+00
      1.3862924438203928e+01 -3.5017217471249936e+01
      1.7371010182830802e+00 -1.4588480020085755e+00
      2.5454753515696291e+00 -7.6859379817537113e-02
      3.1693317037613472e-01 -7.2455036937591579e+00
      -1.0978875412627168e+01 -5.9033261888861919e+00
      -1.0474607030700712e+01 -4.7836795795767387e+01
      5.4507199771699506e+00 7.6013478648822341e-01
      9.8711956971938957e+00 1.6008195795319284e+00
      1.2186067102128131e+01 4.9965045466929228e+00
      -5.2108099214282602e+00 -1.9433553278898515e+01
      4.9014178418728571e+00 -4.5792660046616071e+01
      -3.9942073744675661e+00 -1.3495196713666216e+01
      -3.7792584336219326e+00 -9.4416461530853013e+00
      -2.2004062989000300e-01 6.0733812060005281e+00
      -5.3206657934341210e+00 -1.4992509064911451e+01
      1.3947035029470410e+01 -2.2458519735883478e+01
      7.6790512175692136e+00 5.2422267752049931e+00
      8.5563005541792259e-01 1.9799413167712769e+00
      3.4300464989165405e+00 2.6217049885936441e+00
      -3.5836579530602442e-01 1.4096283796780995e-01
      -6.8609823726410486e+00 -3.0337157546314028e+01
      -4.9314163758192509e+00 -5.9600461813337811e+00
      2.9283720531815427e+00 1.8081822225284438e+00
      7.7977220505181979e+00 1.4116874614184265e+00
      1.7753376721685743e+00 -1.1004154043271640e+01
      3.9164687407523497e+00 9.6352917382197081e+00
      2.2405213830552668e+00 -7.7157460740257888e-01
      -3.5406336019773521e+00 -1.1609795871704931e+01
      -5.7888834859605547e+00 6.3583153120919116e+00
      4.5991737280974354e-01 -3.5743915285855832e+00
      -1.0850733190569648e+00 -2.3364746873378078e+01
      -5.1394767579991587e+00 -3.7616311040913732e+00
      -2.6729375991020698e+00 1.0458783671793530e+00
      -3.9115519768685186e-01 -4.7487524720230843e+00
      7.8319881012150541e+00 -5.2916954562379326e+00
      -4.7528217362084684e+00 -4.5887160996580327e+00
      -3.0926837275897219e+00 5.1424295610728796e+00
      3.8601471184817684e+00 -1.1750155810977658e+01
      1.6295993752582190e+00 9.8346560409295680e+00
      -9.1017743326343634e+00 -7.3238431396785963e-01
      -1.4135781540543564e+00 2.1121068940272711e+00
      1.0415951339581342e+00 2.1832868701106170e-01
      -6.9799385434217323e+00 -9.9742538603490161e+00
      -1.6851006145894218e+00 2.4277816761304698e+00
      2.6985408922809748e+00 1.7020842208703866e+00
      1.9557681231039168e+00 -2.5484751588910579e+00
      -1.4250062288447058e+00 6.2328814990334305e+00
      2.2074902572049835e+00 -4.2270180159148329e-01
      -3.2060065346114883e+00 -4.8996327144242526e+00
      1.1274574759957425e+00 6.1187190361197459e+00
      -1.1698482143002662e+01 -3.9733607908673148e+00
      5.4827480192036815e-01 -4.0978453839130280e+00
      2.8939805883858551e+00 4.7707965450499579e-01
      2.5849013340082134e+00 -3.2241877914946354e-01
      -5.7881137679830390e+00 -1.4999113234652308e+00
      -3.3386064587834996e+00 3.8456854633324875e+00
      -2.2100434264418931e+00 -8.8035372281327418e-01
      -1.4864646076356507e+00 2.2167779271023504e+00
      -4.6771877595870412e+00 5.5945511719566621e-01
      -3.3433752666712824e-01 -2.5208190387350586e+00
      4.8589278588013318e-02 -2.1037127414800096e+00
      7.9354155972418738e-01 -3.9104726002871497e+00
      1.6897306230831945e+00 -2.7903052729709242e-02
      -7.4887630861373724e+00 6.3653950102276307e+00
      -5.5308010584215950e-01 -2.3455234948392190e+00
      -4.2372870638096298e+00 -2.6521059999600545e+00
      -4.2894967877454726e-02 5.6589285609557627e-01
      8.3707665318648616e-01 9.6175072252931559e-01
      3.7062378119848782e-01 3.7280131524280069e-01
      -9.7622075652002294e-01 6.4177643917508442e-01
      -3.0177050164685748e-01 2.6986575197650731e-01
      3.7322196590762382e+00 -8.4482443122632649e+00
      -1.6725913065212099e+00 2.6694420149827618e+00
      -2.2974857727736899e+00 -2.6068862835430933e+00
      -5.2185360468045063e+00 -4.8179117620663074e+00
      1.3448787352986706e+00 -1.5531474418784629e+01
      3.5388593310192890e-01 7.5933539163947594e-01
      -1.4777844043576709e+00 1.0054801457954097e+00
      9.0377922890321927e-01 -4.9829774773375242e+00
      4.7290526274801259e-01 3.9377065975919656e+00
      -2.1393935958941079e+00 -1.8747887745341532e+00
      -1.6150146857942735e+00 -1.3408838668141585e+00
      2.7715458465589129e+00 1.1011701577479352e+01
      -3.4735504604735987e+00 -3.7934700527674678e+00
      2.7855046109899635e+00 -6.0809115267377809e+00
      -2.8662543509656668e+00 -7.2565736783088475e-01
      5.3646989851945015e-01 2.1057806314371392e+00
      1.8224801661405297e+00 -6.4744292002828727e+00
      4.1696981667361284e+00 6.4719294927599984e+00
      -9.4227581990507527e+00 3.1037467533925325e+00
      3.2083066859879574e+00 4.7804902529819158e+00
      -8.1260147326703114e-01 -3.2089759812382583e+00
      2.7772599193525188e-01 -3.0808757592274838e-01
      3.8917096750034923e+00 1.6092120280011863e+00
      2.5554313755609077e+00 -3.0615853889531586e+00
      2.8101985609803251e+00 -2.1301501462390369e+00
      3.3226706835092490e-02 5.9066423404103729e-01
      7.0950986042540203e+00 -3.9326348924378638e+00
      -3.5275465331737470e+00 4.2070636668621342e+00
      -4.4402678661465877e+00 3.5221093275791646e+00
      -5.1934016363310329e+00 -5.9773615881519242e-02
      -3.3858338833380981e+00 -4.1122839389730457e+00
      -1.6839925497981076e+00 -7.6094788025486026e-01
      2.5872539973005595e+00 -3.7921294353146345e-01
      5.1725742459807478e+00 -8.3979556017949140e+00
      3.0920302981439014e+00 -1.2568874461898250e+01
      6.3907402162190694e+00 -3.6612399951959937e+00
      -4.4314757362721293e+00 8.9913414336668804e+00
      -2.1318358527853172e+00 -7.7644331996804121e+00
      -1.8390369000367243e-01 7.9560914558788056e+00
      -2.0056709555189531e+00 -2.9695832034762024e+01
      -1.1839494845009876e+01 1.6744078665836883e+00
      -2.2413479855282870e-01 5.9606232566317774e-01
      1.5693994078184806e-01 3.2259969189851603e+00
      -1.4443311571003736e+00 -1.6901211945660071e+00
      8.7284411680344913e+00 -1.5179569226288287e+01
      -3.5581958478795433e-01 -2.2189564541178579e+00
      -2.4242265296509496e-01 3.8399874014487820e+00
      -1.2232104565382159e+01 -5.1225942977329142e+00
      -3.2590028906266704e+00 3.7144468685531042e+00
      -1.3100409956893941e+01 -1.7609188807359558e+01
      -4.6973843188710376e+00 5.8164532628243881e+00
      -5.0299466738660952e+00 9.3869678740825424e-01
      -9.4488564689992263e+00 1.8256478714562732e+00
      2.1778961391761529e+00 -1.0261637885854378e+00
      -1.0746683227948874e+00 1.3139235128010853e+00
      5.9213123754209274e-01 -1.0534926230669614e+01
      5.8786265678549743e+00 6.9785230457795877e-01
      -1.0348555552154707e+01 -4.4822540952013616e+00
      -2.2133904170410066e+00 4.8952636109496188e+00
      -2.4682345448674585e+00 1.0125150801213717e+01
      3.2294548859392194e+00 4.6833640580709233e+00
      3.1352106490849665e+00 1.1344341928829984e+01
      -6.1972459360871932e+00 2.2333952175008638e+00
      -8.3744625960056354e+00 -5.2404497050735817e+00
      4.7817385673865465e+00 2.7821790239295772e+00
      -8.7258652342647536e-01 -1.6761807039376126e+00
      4.8908575090576152e+00 -6.4429091625692534e+00
      -7.1211225935270441e+00 5.9321688363192857e+00
      -1.3083393813422963e+00 -2.5736925786536338e+00
      -1.2009855326966614e+00 1.1781249730316505e+01
      1.0975625190380571e+01 -1.2656259591334903e+01
      -4.0061743628992224e+00 6.2641992478007351e+00
      -1.7526552769768333e+01 -2.2112808701247739e+00
      -1.7498897273016079e-01 -1.3866482795508375e-01
      1.7287170116481260e+01 5.4969690531427560e+00
      -7.1182995817844388e+00 -2.2561582848208817e+00
      1.7669021792168385e+00 7.5872550387762683e+00
      -2.1938271394893476e+01 -5.3486982953676057e+00
      -1.6430017016661601e+01 6.9037386037244097e+00
      1.0575220211381364e+01 1.6095563088501105e+01
      6.3181089840996911e+00 -2.9171702991470894e+00
      2.7450917611656687e+00 -5.9009058787023321e+00
      -4.0928938715970737e+00 4.5682481413476888e+00
      3.2812357160244705e+00 -1.0624278696503719e+00
      2.7412613543153119e+00 3.9367697480687363e+00
      -3.9390894604487063e+00 -4.6511772348075322e+00
      -2.6038035402671400e+00 1.3066882359947337e+01
      -9.2347205192551183e+00 -3.6563319569760990e+00
      -1.0620195790530813e+01 5.3201203254290590e+00
      -1.7656798989416128e+01 5.9968128258029720e+00
      9.0930902634238056e+00 -4.8045487182142788e+00
      -5.1464012024275609e+00 -1.4372751580660713e+01
      -7.2627552488978120e+00 6.7072519815598817e+00
      5.8268016916262626e+00 -6.4706139285360882e+00
      1.4864129080914015e+01 -5.8284911972862936e+00
      -5.7388818824467567e+00 1.5289876096909719e-01
      7.4813819343581676e+00 6.2109525467776363e+00
      -3.1299939371815593e+00 1.0085141283819038e+01
      -7.6469254589506219e+00 6.8369158368245042e-01
      -3.7522023635724788e+00 1.5582348806500887e+01
      5.2340549809030863e+00 4.4959943699303242e+00
      -6.3113367082992378e-01 9.6191479494644252e+00
      -3.8331668857822043e+00 -5.2490001072154922e+00
      -1.1411401300109477e+01 1.8622190173975310e+00
      4.6201452438316437e+00 -8.7262874012031411e+00
      4.2340922853436442e+00 -8.9556178480969457e+00
      -1.5651789511679999e+00 -2.2606885348912229e+00
      7.8633481741910405e-01 1.0775639445941346e+01
      6.8754963196142853e+00 -4.2357823595194075e+00
      -2.8357249155115288e-01 -1.8482318678103535e+01
      -2.9996363339154652e+00 2.6388542310263046e+00
      -9.7482263127569997e+00 7.2999662327376935e+00
      4.2799346920923407e+00 2.7963985670261322e+00
      -6.8151756176731864e+00 -6.5519410451353197e+00
      -9.6830165655001199e+00 -6.3442414135579241e+00
      -7.8705873334812697e+00 -5.5843193370762130e+00
      -1.8529093577867513e+00 -4.2047924286951197e+00
      2.6823846059028176e+00 7.7898882051851936e+00
      -6.1077907879618527e+00 -1.3658303041316580e+00
      6.1742594319342272e+00 5.5418799723141259e+00
      -4.2261775260947534e+00 -2.2406259616742843e+00
      3.0505648115791857e+00 8.9248330292937572e-01
      -3.1072059507686123e+00 2.4822354141363161e+00
      3.7084246894009092e+00 2.3125698779774257e+00
      1.2508144147092535e+01 -4.5777704210770231e+00
      -6.5200391909308275e-01 1.5488089600460471e+00
      -1.3304788018695162e+00 1.8833280625540492e+00
      4.4574462572354641e+00 2.0544962465102723e-01
      -6.4754044384748735e+00 -1.5890223612237258e+00
      3.7198994464810520e+00 1.7411424231944672e+00
      -5.8773167957795924e-01 -2.5429945840769368e+00
      -3.6195768114584710e+00 -1.7680604252998249e+00
      -4.4072197197336029e+00 1.5251057249915133e+01
      -2.3547048788639127e+00 -1.3623334682960933e+00
      -1.7419078351897660e+01 8.9387800183675958e-01
      3.8438712827215973e+00 -1.1161421020505985e+01
      -1.6505624448530860e+01 -1.5042420606827461e+01
      -6.7052053608816617e+00 1.1917984209733712e+00
      4.9369385470589555e-01 4.5915853821415303e-01
      1.7530800915793605e+00 2.5883339916759116e+00
      -7.6145868157623531e-01 -8.3239970318256375e+00
      -9.9753843306018517e+00 -1.0835446196994114e+01
      -3.2523630394118523e+00 3.3258348989770115e-01
      -3.2188890098738248e+00 5.0715624152767216e+00
      -3.5708761228294922e-01 -6.6065536016517052e+00
      -6.4460091541999844e+00 -1.1276628464281246e+00
      -4.3469048750383337e+00 -1.1333983128206633e+01
      -6.9766146459998657e-01 -1.4562908163187274e+00
      -9.2121824798927632e-01 -1.4550281350898082e+00
      -7.7429806180970073e-01 -6.2539798920433620e+00
      1.5277095525627182e+00 -5.0968480182999372e+00
      -4.3750151479343774e-01 1.8461656249716127e+00
      -1.5275194816179591e+00 4.0990738120882542e+00
      -3.3096986485322395e+00 6.6131754233111968e+00
      -5.6855668925731013e+00 -7.3119081477913750e-01
      3.3412790249131019e+00 3.3394814375882413e+00
      -7.2047477833400473e+00 -1.7474025681396941e+00
      -3.1597284238951273e+00 -1.2551534353536704e+01
      1.8046666373970370e+00 5.2781537602167783e-01
      -1.0230254289316445e+01 -3.5693923599577850e+00
      3.0365522654795867e+00 -1.4092687082437243e+00
      6.4292724691180192e+00 3.0342465891091921e+00
      3.6646325691751542e+00 -4.7703764155012971e+00
      -3.0375037007421133e+00 6.9555792341218714e+00
      -4.0387564074565709e+00 -1.1372179264533495e+01
      2.6051695709146001e+00 -1.3782520667217775e+00
      1.6616135100784299e+00 3.9630856658926095e+00
      -5.8901709334471053e-01 -7.5931111279101700e+00
      -5.3183361838218202e-01 4.4689126176344196e+00
      -8.9701153691690898e+00 -3.1222141768501341e+01
      5.4589518871116889e+00 6.6597690748025529e-01
      4.0020106769142405e+00 1.6812358598912464e-01
      1.1821412144075962e+00 7.5628659561197498e-01
      3.9946587587796394e+00 4.4074316374403635e+00
      -6.6780068607246443e+00 -2.1200968954100816e+01
      -1.5106781857276120e+01 -8.4113436083993474e+00
      8.4577001771234883e+00 -3.8094162868164401e+00
      6.3111086710301958e+00 6.9638022018362227e+00
      -8.3817527847571984e+00 -5.5756899186322784e+00
      8.5033218528804060e+00 -3.3701450209970579e-01
      3.8479640082362430e+00 -5.1073502890874356e-01
      -4.9702637887093388e+00 3.5439175985903532e-01
      5.2106230614485103e+00 4.9303289189533622e-01
      -1.7523762276651043e+00 5.9273745194662615e+00
      -4.6177933414831625e+00 -1.0587635641874652e+01
      -8.0943367272333877e-01 -5.3434639473223626e+00
      -3.4700863043354104e+00 3.0033872014597396e+00
      -6.6491237946239607e+00 7.0590405056032353e+00
      -2.1992376249975504e-01 9.8393659266374947e+00
      5.4631045542209105e+00 -7.8828436161002685e-02
      1.2040521969613426e+01 -1.9292313021826859e+00
      6.0180344919863824e+00 -7.8639828487710544e+00
      2.6096764878279211e+00 -3.6560022027340557e+00
      -7.7393338981965671e+00 2.0111853556304324e+00
      -8.9413224416634718e-01 -7.2433897463248993e+00
      -8.6392747189446943e+00 1.0179144047802493e+01
      -4.6332088740105419e+00 -3.8800225571721341e+00
      -1.3336890736175709e+01 2.5598066825081363e+00
      -4.5472413899726680e+00 6.8011572331851760e+00
      -8.0013370284432082e+00 6.5457431659194789e+00
      1.4453159602980903e+00 -1.1334422118276386e+01
      -1.9366777007937230e+00 -2.0270329410316097e+00
      -7.8519591698264151e+00 1.7741383070613798e-01
      -2.0197650266816725e+00 -2.7256289006280348e+00
      -7.0848960262823466e+00 1.1988870295425528e+01
      -3.3875867802605089e+00 2.1345160029849515e+00
      -4.9098599268663429e-01 8.5640171985333566e+00
      -3.8038617097435949e+00 -3.9089485652075853e+00
      -9.5531163885056429e+00 7.9174386111253681e-01
      -1.9316581394615994e+01 5.9707776127132579e+00
      -1.9134146821495472e+00 -1.4748901057443080e+00
      1.0286491083337372e+00 -2.9398325327163483e-01
      -1.3950914548018863e+01 -5.1181951056629353e+00
      1.4341449003803675e+00 -3.3056401901604193e+00
      1.7281810093241806e+01 2.1230276219359883e+01
      3.4905563656461398e+00 -2.6153395717069947e+00
      4.0822191920173694e+00 -1.8087954396609329e+00
      -1.9833157266149346e+00 3.7492066075669732e+00
      -8.2584831713674980e+00 4.3265161544579511e+00
      -8.5270821943673347e+00 5.3660795461474988e+00
      6.5279323973428669e+00 -3.3376108453148419e+00
      -8.6677594763017201e+00 3.5380798692865101e+00
      -6.6812442065800761e+00 -3.4138469704942929e+00
      -3.8515790727152915e-02 8.0580832033842587e+00
      -3.0286748190792241e+00 2.7827350233923664e+00
      7.1601387443588953e+00 -6.5054591091639793e+00
      1.1087377316875306e+00 -5.9851976801275750e+00
      -5.7385677379965010e+00 4.7819564690784073e+00
      -1.6319825157376093e+00 2.2069057682384924e-01
      1.8485946150537256e+01 3.3532755066311735e+00
      1.7623479953642476e+00 3.1668855132344929e+00
      1.1182418934622369e+00 -3.3232059539955379e+00
      4.2890341379975681e+00 -8.2681952878828664e+00
      -3.8275753028534081e+00 6.0251525138485622e+00
      -1.8938299818598399e+01 4.2972516687832938e+00
      3.1575884750115462e+00 -1.1957170028462010e+00
      -1.3250523259400854e+01 -2.6718680650700892e+00
      -1.7341659620825876e+00 -1.3676762056024192e+00
      -5.6603103994292026e+00 7.7592612162811179e+00
      1.9786331367026129e+00 -2.5634975574095895e+00
      -3.6505844913137757e+00 1.3929291293088517e+00
      -4.3050075756602840e-01 -9.2194424022726320e+00
      2.2768202417354124e+00 7.4323177432484941e+00
      -4.6258824112882211e+00 -1.5977624930701084e+00
      -1.1685937461329614e+00 -2.9951653997370746e+00
      3.0617037268536254e+00 4.3852242555689874e-01
      6.2181215839606576e+00 -1.6933604657850779e+01
      2.0225645073710181e+00 1.4877547361764583e+01
      -7.2112008903233757e+00 1.0696517390873080e+01
      -9.7627980600330382e+00 -2.6735638996649418e+00
      -3.7163946413747615e+00 -7.7316798756871685e-01
      -1.2148980586725903e+01 -1.0287437470344083e+00
      6.5894674281477261e+00 -4.0367482753102575e+00
      9.9960394193753075e+00 -8.2891382244203093e+00
      1.0761011734102000e+01 -1.9142193608764931e+01
      -1.0966716236647052e+00 -4.0437483452259064e+00
      -8.5811680313935650e+00 -2.7290170563718283e+00
      -9.3502406899205273e+00 8.4282928645433888e+00
      -4.9496995089191715e+00 1.0701379510769684e+01
      -8.2694769353849242e+00 -6.0306115724840490e+00
      1.9655244534703695e+00 -3.9004141319571835e+00
      -7.4738847214660864e-01 -7.0493494066730533e-01
      -3.7281432828924546e+00 2.7132425914271985e+00
      -3.0816404250395029e+00 -8.0649490396659402e+00
      -9.2981112127376662e+00 1.7958628822501903e+00
      -6.2433241914728423e+00 4.1504064968784764e+00
      3.4633583678075874e+00 2.7717735734153175e+00
      -2.4561249130343712e+00 -2.3491864998165193e+00
      5.6828969525535618e+00 8.4507411128525445e-01
      -1.8059065023026924e-01 -1.1099590306101565e+00
      2.9641513402946229e+00 -8.6543221171484142e-01
      -6.9674469090172064e-01 1.4161067763989093e+00
      2.3937524650374778e-01 1.2553904627418566e+01
      -3.6246838589212307e+00 6.0000365712834214e-01
      1.2761727037847217e+00 -1.5052699688167324e+00
      4.6034797774457044e+00 -1.1472243448272103e+01
      -1.5519040504431944e+01 -1.5013254381529876e+01
      -7.2479090083321074e+00 1.1624335065845313e+00
      8.0025707639920984e-01 -8.4619502348433107e-01
      2.1916049381871097e+00 -3.1837581307733198e+00
      -1.8296565319707714e+00 -3.0682561439971332e+00
      1.1256245149368707e+00 -7.6054816072875759e+00
      -2.1116588900446702e+00 2.8423749409200401e+00
      -3.4715149994899336e-01 9.7611456141448052e+00
      -3.1179863160977850e+00 1.9744974344894306e+00
      7.7359990340708817e-01 -6.4628686944590708e-01
      2.3749646815237835e+00 -9.9664655479651696e+00
      -3.0272772776071126e+00 2.2412603448060658e-01
      1.8070834134898597e+00 1.1529072688525575e+01
      -1.1095437892871594e+00 -2.4138135099866496e+01
      3.1254101987326695e+00 3.2535565809854883e+00
      -9.2699908993206375e+00 -1.6300338137682385e-01
      3.3118177589790254e+00 1.1240337471307268e-01
      -3.9966894715392893e+00 -5.2420349590571336e+00
      4.9555694395614713e+00 -7.5348140554449223e+00
      -6.8331945440607891e+00 -6.4049766501551600e-02
      3.3098873209888131e+00 3.7106751279604082e+00
      -4.2319505483023674e+00 -1.6369344232683357e+01
      6.3892912716515458e+00 5.5177497053766693e+00
      1.4841320891543150e+01 5.1011277466298255e+00
      -7.3200659166872022e+00 -2.7050498127089964e+00
      -7.6487499137056914e-01 2.3313600932117264e+00
      5.3083836301400753e+00 7.3644892110619162e+00
      -8.4976617076252019e+00 -3.9116472139429406e+00
      -1.6971607035607554e+00 7.7505409193238579e+00
      7.9411616543359536e+00 -1.1723658588093624e+00
      -1.0246888228564039e+01 -5.2041975090796848e+00
      4.6013415250064842e+00 -2.5678302707264486e+00
      -1.2223515411452954e+01 1.3231913504643587e+00
      2.0124513465278793e+00 5.1249586663197739e+00
      -5.0180303498839178e+00 1.5009574481737991e+00
      1.3043777644314531e+00 5.2160184990319944e+00
      6.2479827032238155e-01 1.0128699942925650e+00
      8.2249032816940755e+00 1.4616704931259681e+01
